{"learner":{"attributes":{"scikit_learn":"{\"_estimator_type\": \"classifier\"}"},"feature_names":["url_length","hostname_length","path_length","num_dots","num_hyphens","num_underscores","num_slashes","num_at","num_question","num_equals","num_ampersand","num_percent","num_digits","digit_ratio","num_params","hostname_entropy","url_entropy","suspicious_keywords","has_ip_in_url","subdomain_depth","domain_length","tld_length","suspicious_tld","is_https","has_port","has_login_keyword","has_redirect","has_double_slash","has_hex_encoding","path_depth","has_exe_extension","domain_has_digits","has_subdomain","tld_in_subdomain","brand_in_subdomain","brand_in_path"],"feature_types":["int","int","int","int","int","int","int","int","int","int","int","int","int","float","int","float","float","int","int","int","int","int","int","int","int","int","int","int","int","int","int","int","int","int","int","int"],"gradient_booster":{"model":{"cats":{"enc":[],"feature_segments":[],"sorted_idx":[]},"gbtree_model_param":{"num_parallel_tree":"1","num_trees":"300"},"iteration_indptr":[0,1,2,3,4,5,6,7,8,9,10,11,12,13,14,15,16,17,18,19,20,21,22,23,24,25,26,27,28,29,30,31,32,33,34,35,36,37,38,39,40,41,42,43,44,45,46,47,48,49,50,51,52,53,54,55,56,57,58,59,60,61,62,63,64,65,66,67,68,69,70,71,72,73,74,75,76,77,78,79,80,81,82,83,84,85,86,87,88,89,90,91,92,93,94,95,96,97,98,99,100,101,102,103,104,105,106,107,108,109,110,111,112,113,114,115,116,117,118,119,120,121,122,123,124,125,126,127,128,129,130,131,132,133,134,135,136,137,138,139,140,141,142,143,144,145,146,147,148,149,150,151,152,153,154,155,156,157,158,159,160,161,162,163,164,165,166,167,168,169,170,171,172,173,174,175,176,177,178,179,180,181,182,183,184,185,186,187,188,189,190,191,192,193,194,195,196,197,198,199,200,201,202,203,204,205,206,207,208,209,210,211,212,213,214,215,216,217,218,219,220,221,222,223,224,225,226,227,228,229,230,231,232,233,234,235,236,237,238,239,240,241,242,243,244,245,246,247,248,249,250,251,252,253,254,255,256,257,258,259,260,261,262,263,264,265,266,267,268,269,270,271,272,273,274,275,276,277,278,279,280,281,282,283,284,285,286,287,288,289,290,291,292,293,294,295,296,297,298,299,300],"tree_info":[0,0,0,0,0,0,0,0,0,0,0,0,0,0,0,0,0,0,0,0,0,0,0,0,0,0,0,0,0,0,0,0,0,0,0,0,0,0,0,0,0,0,0,0,0,0,0,0,0,0,0,0,0,0,0,0,0,0,0,0,0,0,0,0,0,0,0,0,0,0,0,0,0,0,0,0,0,0,0,0,0,0,0,0,0,0,0,0,0,0,0,0,0,0,0,0,0,0,0,0,0,0,0,0,0,0,0,0,0,0,0,0,0,0,0,0,0,0,0,0,0,0,0,0,0,0,0,0,0,0,0,0,0,0,0,0,0,0,0,0,0,0,0,0,0,0,0,0,0,0,0,0,0,0,0,0,0,0,0,0,0,0,0,0,0,0,0,0,0,0,0,0,0,0,0,0,0,0,0,0,0,0,0,0,0,0,0,0,0,0,0,0,0,0,0,0,0,0,0,0,0,0,0,0,0,0,0,0,0,0,0,0,0,0,0,0,0,0,0,0,0,0,0,0,0,0,0,0,0,0,0,0,0,0,0,0,0,0,0,0,0,0,0,0,0,0,0,0,0,0,0,0,0,0,0,0,0,0,0,0,0,0,0,0,0,0,0,0,0,0,0,0,0,0,0,0,0,0,0,0,0,0,0,0,0,0,0,0,0,0,0,0,0,0,0,0,0,0,0,0],"trees":[{"base_weights":[1.1199637E-3,-1.8931422E0,1.999958E-1,-1.983682E0,1.9982517E-1,-1.9839252E0,1.499997E-1,-1.9876221E0,-1.9511424E0,-1.9908865E-1,-1.9539478E0,1.7499982E-1,-1.9566431E0,-1.9566661E-1,-1.5333362E-1,-1.9606055E-1,-1.751198E-1],"categories":[],"categories_nodes":[],"categories_segments":[],"categories_sizes":[],"default_left":[0,0,0,0,0,0,0,0,0,0,0,0,0,0,0,0,0],"id":0,"left_children":[1,3,-1,5,-1,7,-1,9,11,-1,13,-1,15,-1,-1,-1,-1],"loss_changes":[3.708717E5,1.7722672E4,0E0,4.4625E1,0E0,2.0625E0,0E0,9.53125E-1,1.0593359E2,0E0,1.5175781E0,0E0,6.6015625E-1,0E0,0E0,0E0,0E0],"parents":[2147483647,0,0,1,1,3,3,5,5,7,7,8,8,10,10,12,12],"right_children":[2,4,-1,6,-1,8,-1,10,12,-1,14,-1,16,-1,-1,-1,-1],"split_conditions":[1E0,1E0,1.999958E-1,1E0,1.9982517E-1,2.7E1,1.499997E-1,1E0,2E1,-1.9908865E-1,1E0,1.7499982E-1,7E0,-1.9566661E-1,-1.5333362E-1,-1.9606055E-1,-1.751198E-1],"split_indices":[2,19,0,18,0,0,0,4,1,0,17,0,21,0,0,0,0],"split_type":[0,0,0,0,0,0,0,0,0,0,0,0,0,0,0,0,0],"sum_hessian":[9.794835E4,5.028974E4,4.765861E4,4.914675E4,1.1429907E3,4.914375E4,2.9999754E0,4.410975E4,5.0339995E3,4.015875E4,3.9509995E3,6.999943E0,5.0269995E3,3.9219998E3,2.8999975E1,4.9234995E3,1.03499954E2],"tree_param":{"num_deleted":"0","num_feature":"36","num_nodes":"17","size_leaf_vector":"1"}},{"base_weights":[1.8094159E-3,-1.7217814E0,1.818696E-1,-1.8029941E0,1.8172497E-1,1.393565E-1,-1.8032182E0,-1.8067794E0,-1.7714078E0,-1.812184E0,-1.7927899E0,-1.7739868E0,-1.465039E0,-1.8123105E-1,1.3315736E-2,-1.7952687E-1,-1.6134845E-1,-1.7787963E-1,-1.6453202E-1,-1.7699488E-1,-1.1317223E-1],"categories":[],"categories_nodes":[],"categories_segments":[],"categories_sizes":[],"default_left":[0,0,0,0,0,0,0,0,0,0,0,0,0,0,0,0,0,0,0,0,0],"id":1,"left_children":[1,3,-1,5,-1,-1,7,9,11,13,15,17,19,-1,-1,-1,-1,-1,-1,-1,-1],"loss_changes":[3.044747E5,1.434375E4,0E0,3.74375E1,0E0,0E0,2.34375E0,4.6875E-2,1.3193359E0,8E0,2.5664062E0,1.1621094E-1,2.7896805E0,0E0,0E0,0E0,0E0,0E0,0E0,0E0,0E0],"parents":[2147483647,0,0,1,1,3,3,6,6,7,7,8,8,9,9,10,10,11,11,12,12],"right_children":[2,4,-1,6,-1,-1,8,10,12,14,16,18,20,-1,-1,-1,-1,-1,-1,-1,-1],"split_conditions":[1E0,1E0,1.818696E-1,2E0,1.8172497E-1,1.393565E-1,1E0,1.6E1,1E0,4.209867E0,7E0,2.3E1,3.9483943E0,-1.8123105E-1,1.3315736E-2,-1.7952687E-1,-1.6134845E-1,-1.7787963E-1,-1.6453202E-1,-1.7699488E-1,-1.1317223E-1],"split_indices":[2,32,0,21,0,0,4,1,17,16,21,20,16,0,0,0,0,0,0,0,0],"split_type":[0,0,0,0,0,0,0,0,0,0,0,0,0,0,0,0,0,0,0,0,0],"sum_hessian":[9.722552E4,4.989379E4,4.733173E4,4.8775004E4,1.1187852E3,2.9831638E0,4.8772023E4,4.3811508E4,4.960514E3,3.1509734E4,1.2301774E4,4.914356E3,4.6158455E1,3.1507754E4,1.9803039E0,1.2125142E4,1.766332E2,4.724912E3,1.8944392E2,2.1855494E1,2.4302963E1],"tree_param":{"num_deleted":"0","num_feature":"36","num_nodes":"21","size_leaf_vector":"1"}},{"base_weights":[-1.1618802E-3,-1.5908148E0,1.6825505E-1,-1.6673143E0,1.6812901E-1,-1.6763046E0,2.389009E-1,-1.6765139E-1,-7.574355E-1,-1.5166192E-1,1.3046813E-1],"categories":[],"categories_nodes":[],"categories_segments":[],"categories_sizes":[],"default_left":[0,0,0,0,0,0,0,0,0,0,0],"id":2,"left_children":[1,3,-1,5,-1,7,-1,-1,9,-1,-1],"loss_changes":[2.534036E5,1.219275E4,0E0,1.7393594E3,0E0,7.859375E0,0E0,0E0,2.176223E1,0E0,0E0],"parents":[2147483647,0,0,1,1,3,3,5,5,8,8],"right_children":[2,4,-1,6,-1,8,-1,-1,10,-1,-1],"split_conditions":[1E0,1E0,1.6825505E-1,1E0,1.6812901E-1,1.1E1,2.389009E-1,-1.6765139E-1,2E0,-1.5166192E-1,1.3046813E-1],"split_indices":[2,19,0,23,0,12,0,0,3,0,0],"split_type":[0,0,0,0,0,0,0,0,0,0,0],"sum_hessian":[9.4674586E4,4.8697543E4,4.597704E4,4.758552E4,1.1120249E3,4.748087E4,1.04647354E2,4.7469234E4,1.1636988E1,8.69894E0,2.938047E0],"tree_param":{"num_deleted":"0","num_feature":"36","num_nodes":"11","size_leaf_vector":"1"}},{"base_weights":[6.959138E-4,-1.4917856E0,1.5768448E-1,-1.5612723E0,1.5756124E-1,-1.5699371E0,2.0966701E-1,-1.5701404E-1,1.22912906E-1],"categories":[],"categories_nodes":[],"categories_segments":[],"categories_sizes":[],"default_left":[0,0,0,0,0,0,0,0,0],"id":3,"left_children":[1,3,-1,5,-1,7,-1,-1,-1],"loss_changes":[2.1405861E5,9.964547E3,0E0,1.4519062E3,0E0,2.7859375E1,0E0,0E0,0E0],"parents":[2147483647,0,0,1,1,3,3,5,5],"right_children":[2,4,-1,6,-1,8,-1,-1,-1],"split_conditions":[3E0,1E0,1.5768448E-1,1E0,1.5756124E-1,1E0,2.0966701E-1,-1.5701404E-1,1.22912906E-1],"split_indices":[6,19,0,23,0,18,0,0,0],"split_type":[0,0,0,0,0,0,0,0,0],"sum_hessian":[9.099488E4,4.6737973E4,4.4256914E4,4.5703137E4,1.0348347E3,4.5595703E4,1.0743492E2,4.5592832E4,2.8715754E0],"tree_param":{"num_deleted":"0","num_feature":"36","num_nodes":"9","size_leaf_vector":"1"}},{"base_weights":[-2.3996972E-3,-1.4123394E0,1.4926891E-1,-1.4780867E0,1.4914936E-1,-1.4858266E0,1.8902282E-1,-1.4859577E-1,1.0282347E-1],"categories":[],"categories_nodes":[],"categories_segments":[],"categories_sizes":[],"default_left":[0,0,0,0,0,0,0,0,0],"id":4,"left_children":[1,3,-1,5,-1,7,-1,-1,-1],"loss_changes":[1.8290566E5,8.5278125E3,0E0,1.14125E3,0E0,1.58671875E1,0E0,0E0,0E0],"parents":[2147483647,0,0,1,1,3,3,5,5],"right_children":[2,4,-1,6,-1,8,-1,-1,-1],"split_conditions":[1E0,1E0,1.4926891E-1,1E0,1.4914936E-1,1E0,1.8902282E-1,-1.4859577E-1,1.0282347E-1],"split_indices":[2,19,0,23,0,18,0,0,0],"split_type":[0,0,0,0,0,0,0,0,0],"sum_hessian":[8.676601E4,4.465463E4,4.2111383E4,4.3666445E4,9.8818384E2,4.356689E4,9.955283E1,4.356503E4,1.859643E0],"tree_param":{"num_deleted":"0","num_feature":"36","num_nodes":"9","size_leaf_vector":"1"}},{"base_weights":[3.367257E-4,-1.3454772E0,1.4243665E-1,-1.4087029E0,1.4231823E-1,-1.4088311E0,9.8097466E-2,-1.4107589E0,-1.3384427E0,-1.4108349E0,-7.1263313E-1,1.15473464E-1,-1.343838E0,-1.4160153E-1,-1.3976537E-1,4.7576964E-2,-1.14216544E-1,-1.3558644E-1,-1.03559986E-1],"categories":[],"categories_nodes":[],"categories_segments":[],"categories_sizes":[],"default_left":[0,0,0,0,0,0,0,0,0,0,0,0,0,0,0,0,0,0,0],"id":5,"left_children":[1,3,-1,5,-1,7,-1,9,11,13,15,-1,17,-1,-1,-1,-1,-1,-1],"loss_changes":[1.5742778E5,7.3947188E3,0E0,1.40390625E1,0E0,3.7109375E0,0E0,1.1328125E0,1.6618774E1,7.65625E-1,3.8065722E0,0E0,2.7410889E0,0E0,0E0,0E0,0E0,0E0,0E0],"parents":[2147483647,0,0,1,1,3,3,5,5,7,7,8,8,9,9,10,10,12,12],"right_children":[2,4,-1,6,-1,8,-1,10,12,14,16,-1,18,-1,-1,-1,-1,-1,-1],"split_conditions":[1E0,1E0,1.4243665E-1,1E0,1.4231823E-1,3.1E1,9.8097466E-2,4.1313004E0,2.4E1,2.3E1,1.9E1,1.15473464E-1,7E0,-1.4160153E-1,-1.3976537E-1,4.7576964E-2,-1.14216544E-1,-1.3558644E-1,-1.03559986E-1],"split_indices":[2,19,0,18,0,0,0,15,1,0,1,0,21,0,0,0,0,0,0],"split_type":[0,0,0,0,0,0,0,0,0,0,0,0,0,0,0,0,0,0,0],"sum_hessian":[8.214228E4,4.223095E4,3.9911332E4,4.1288566E4,9.423825E2,4.128676E4,1.8052738E0,4.0167633E4,1.119127E3,4.0162242E4,5.3926277E0,1.9565394E0,1.1171704E3,2.8754871E4,1.140737E4,1.4030666E0,3.989561E0,1.0719474E3,4.522293E1],"tree_param":{"num_deleted":"0","num_feature":"36","num_nodes":"19","size_leaf_vector":"1"}},{"base_weights":[2.2619858E-3,-1.2914062E0,1.368023E-1,-1.3518294E0,1.3668041E-1,-1.3601452E0,1.8429564E-1,-1.3603373E-1,1.067883E-1],"categories":[],"categories_nodes":[],"categories_segments":[],"categories_sizes":[],"default_left":[0,0,0,0,0,0,0,0,0],"id":6,"left_children":[1,3,-1,5,-1,7,-1,-1,-1],"loss_changes":[1.3650516E5,6.3746562E3,0E0,1.0331875E3,0E0,1.9492188E1,0E0,0E0,0E0],"parents":[2147483647,0,0,1,1,3,3,5,5],"right_children":[2,4,-1,6,-1,8,-1,-1,-1],"split_conditions":[1E0,1E0,1.368023E-1,1E0,1.3668041E-1,1E0,1.8429564E-1,-1.3603373E-1,1.067883E-1],"split_indices":[2,19,0,23,0,18,0,0,0],"split_type":[0,0,0,0,0,0,0,0,0],"sum_hessian":[7.725742E4,3.9675902E4,3.758152E4,3.8794562E4,8.8134E2,3.8694418E4,1.0014419E2,3.8691797E4,2.6206446E0],"tree_param":{"num_deleted":"0","num_feature":"36","num_nodes":"9","size_leaf_vector":"1"}},{"base_weights":[1.0699944E-3,-1.2451323E0,1.3209628E-1,-1.3043725E0,1.3197234E-1,-1.3121164E0,1.695476E-1,1.0213941E-1,-1.3123068E0,-1.3155812E-1,-1.2830971E-1],"categories":[],"categories_nodes":[],"categories_segments":[],"categories_sizes":[],"default_left":[0,0,0,0,0,0,0,0,0,0,0],"id":7,"left_children":[1,3,-1,5,-1,7,-1,-1,9,-1,-1],"loss_changes":[1.1884226E5,5.6483438E3,0E0,8.460625E2,0E0,1.7425781E1,0E0,0E0,1.78125E0,0E0,0E0],"parents":[2147483647,0,0,1,1,3,3,5,5,8,8],"right_children":[2,4,-1,6,-1,8,-1,-1,10,-1,-1],"split_conditions":[1E0,1E0,1.3209628E-1,1E0,1.3197234E-1,2E0,1.695476E-1,1.0213941E-1,1E0,-1.3155812E-1,-1.2830971E-1],"split_indices":[2,32,0,23,0,21,0,0,4,0,0],"split_type":[0,0,0,0,0,0,0,0,0,0,0],"sum_hessian":[7.224897E4,3.71619E4,3.5087066E4,3.6323434E4,8.3846735E2,3.623047E4,9.296369E1,2.5168025E0,3.6227953E4,3.2536484E4,3.6914678E3],"tree_param":{"num_deleted":"0","num_feature":"36","num_nodes":"11","size_leaf_vector":"1"}},{"base_weights":[2.405E-4,-1.2060432E0,1.2812397E-1,-1.2627113E0,1.2799208E-1,-1.2628992E0,9.794279E-2,-1.2672145E0,-1.2245852E0,-1.2701952E0,-1.2369875E0,-1.2302294E0,-1.104506E0,-1.2702854E-1,4.103602E-2,-1.2420287E-1,-1.1323936E-1,-1.23220265E-1,-9.5702305E-2,-1.00605786E-1,-1.2707292E-1],"categories":[],"categories_nodes":[],"categories_segments":[],"categories_sizes":[],"default_left":[0,0,0,0,0,0,0,0,0,0,0,0,0,0,0,0,0,0,0,0,0],"id":8,"left_children":[1,3,-1,5,-1,7,-1,9,11,13,15,17,19,-1,-1,-1,-1,-1,-1,-1,-1],"loss_changes":[1.0429361E5,4.898461E3,0E0,1.55546875E1,0E0,4.0664062E0,0E0,1.1796875E0,9.9316406E-1,4.7226562E0,5.7617188E-2,6.0253906E-1,1.4308777E0,0E0,0E0,0E0,0E0,0E0,0E0,0E0,0E0],"parents":[2147483647,0,0,1,1,3,3,5,5,7,7,8,8,9,9,10,10,11,11,12,12],"right_children":[2,4,-1,6,-1,8,-1,10,12,14,16,18,20,-1,-1,-1,-1,-1,-1,-1,-1],"split_conditions":[1E0,1E0,1.2812397E-1,1E0,1.2799208E-1,1E0,9.794279E-2,2E1,2.2E1,4.346165E0,2.8037382E-2,2E-1,2.8037382E-2,-1.2702854E-1,4.103602E-2,-1.2420287E-1,-1.1323936E-1,-1.23220265E-1,-9.5702305E-2,-1.00605786E-1,-1.2707292E-1],"split_indices":[2,19,0,18,0,4,0,1,20,16,13,13,13,0,0,0,0,0,0,0,0],"split_type":[0,0,0,0,0,0,0,0,0,0,0,0,0,0,0,0,0,0,0,0,0],"sum_hessian":[6.749109E4,3.475926E4,3.2731838E4,3.3985055E4,7.74204E2,3.3982645E4,2.410516E0,3.0513756E4,3.468889E3,2.7737488E4,2.7762686E3,3.3043271E3,1.6456152E2,2.7736246E4,1.2428601E0,2.6382368E3,1.3803174E2,3.2771477E3,2.7179596E1,1.0777974E2,5.6781788E1],"tree_param":{"num_deleted":"0","num_feature":"36","num_nodes":"21","size_leaf_vector":"1"}},{"base_weights":[3.8656362E-4,-1.1708308E0,1.2474122E-1,-1.2264996E0,1.2460313E-1,-1.2363346E0,1.6644111E-1,-1.2364608E0,8.174772E-2,-1.2403313E0,-1.2019382E0,-1.2404684E-1,-8.741812E-2,-1.2038215E-1,-9.71806E-2],"categories":[],"categories_nodes":[],"categories_segments":[],"categories_sizes":[],"default_left":[0,0,0,0,0,0,0,0,0,0,0,0,0,0,0],"id":9,"left_children":[1,3,-1,5,-1,7,-1,9,-1,11,13,-1,-1,-1,-1],"loss_changes":[9.150517E4,4.34834E3,0E0,8.9997266E2,0E0,9.1640625E0,0E0,2.7148438E0,0E0,3.3984375E-1,2.1923828E-1,0E0,0E0,0E0,0E0],"parents":[2147483647,0,0,1,1,3,3,5,5,7,7,9,9,10,10],"right_children":[2,4,-1,6,-1,8,-1,10,-1,12,14,-1,-1,-1,-1],"split_conditions":[3E0,1E0,1.2474122E-1,1E0,1.2460313E-1,1E0,1.6644111E-1,1E0,8.174772E-2,1E0,1E0,-1.2404684E-1,-8.741812E-2,-1.2038215E-1,-9.71806E-2],"split_indices":[6,19,0,23,0,18,0,4,0,25,17,0,0,0,0],"split_type":[0,0,0,0,0,0,0,0,0,0,0,0,0,0,0],"sum_hessian":[6.264968E4,3.2306855E4,3.0342822E4,3.1579953E4,7.2690295E2,3.1473451E4,1.0650193E2,3.1471916E4,1.5358158E0,2.8267746E4,3.20417E3,2.8254781E4,1.2964182E1,3.173964E3,3.0205864E1],"tree_param":{"num_deleted":"0","num_feature":"36","num_nodes":"15","size_leaf_vector":"1"}},{"base_weights":[-7.337292E-4,-1.1446503E0,1.21839E-1,-1.1971964E0,1.21684864E-1,-1.2067966E0,1.562509E-1,-1.2069888E0,9.1061905E-2,-1.2103287E-1,-1.1857389E0,-1.1881112E-1,-1.02309585E-1],"categories":[],"categories_nodes":[],"categories_segments":[],"categories_sizes":[],"default_left":[0,0,0,0,0,0,0,0,0,0,0,0,0],"id":10,"left_children":[1,3,-1,5,-1,7,-1,9,-1,-1,11,-1,-1],"loss_changes":[8.0746375E4,3.708129E3,0E0,7.7609375E2,0E0,1.29453125E1,0E0,6.328125E-1,0E0,0E0,3.2910156E-1,0E0,0E0],"parents":[2147483647,0,0,1,1,3,3,5,5,7,7,10,10],"right_children":[2,4,-1,6,-1,8,-1,10,-1,-1,12,-1,-1],"split_conditions":[1E0,1E0,1.21839E-1,1E0,1.21684864E-1,1E0,1.562509E-1,2.6E1,9.1061905E-2,-1.2103287E-1,1E0,-1.1881112E-1,-1.02309585E-1],"split_indices":[2,19,0,23,0,18,0,0,0,0,17,0,0],"split_type":[0,0,0,0,0,0,0,0,0,0,0,0,0],"sum_hessian":[5.7898305E4,2.9870531E4,2.8027775E4,2.9220828E4,6.4970233E2,2.912009E4,1.0073909E2,2.9117877E4,2.2119594E0,2.5114568E4,4.0033093E3,3.939544E3,6.376539E1],"tree_param":{"num_deleted":"0","num_feature":"36","num_nodes":"13","size_leaf_vector":"1"}},{"base_weights":[9.716378E-4,-1.1188174E0,1.1933308E-1,-1.1707928E0,1.1916943E-1,-1.1808684E0,1.4810102E-1,-1.180998E0,7.5616114E-2,-1.1855422E0,-1.1409332E0,-1.1857002E-1,-7.638591E-2,-1.1816462E-1,-1.1179954E-1],"categories":[],"categories_nodes":[],"categories_segments":[],"categories_sizes":[],"default_left":[0,0,0,0,0,0,0,0,0,0,0,0,0,0,0],"id":11,"left_children":[1,3,-1,5,-1,7,-1,9,-1,11,13,-1,-1,-1,-1],"loss_changes":[7.133591E4,3.3101328E3,0E0,7.2171875E2,0E0,7.6328125E0,0E0,3.5351562E0,0E0,6.9921875E-1,1.2578125E0,0E0,0E0,0E0,0E0],"parents":[2147483647,0,0,1,1,3,3,5,5,7,7,9,9,10,10],"right_children":[2,4,-1,6,-1,8,-1,10,-1,12,14,-1,-1,-1,-1],"split_conditions":[1E0,1E0,1.1933308E-1,1E0,1.1916943E-1,1E0,1.4810102E-1,1E0,7.5616114E-2,1E0,3E0,-1.1857002E-1,-7.638591E-2,-1.1816462E-1,-1.1179954E-1],"split_indices":[2,32,0,23,0,18,0,4,0,25,21,0,0,0,0],"split_type":[0,0,0,0,0,0,0,0,0,0,0,0,0,0,0],"sum_hessian":[5.34255E4,2.7551201E4,2.5874299E4,2.6945549E4,6.0565234E2,2.684411E4,1.01439705E2,2.6842703E4,1.405282E0,2.408256E4,2.7601423E3,2.4071732E4,1.0828007E1,9.7646576E2,1.7836765E3],"tree_param":{"num_deleted":"0","num_feature":"36","num_nodes":"15","size_leaf_vector":"1"}},{"base_weights":[1.4438448E-3,-1.0973827E0,1.1715754E-1,-1.148066E0,1.1698027E-1,-1.1579436E0,1.4123794E-1,-1.1581409E0,4.3624675E-1,-1.1627089E0,-1.117954E0,7.305422E-2,-2.3838978E-3,-1.16556644E-1,-1.1335393E-1,-1.12614036E-1,-1.0147995E-1],"categories":[],"categories_nodes":[],"categories_segments":[],"categories_sizes":[],"default_left":[0,0,0,0,0,0,0,0,0,0,0,0,0,0,0,0,0],"id":12,"left_children":[1,3,-1,5,-1,7,-1,9,11,13,15,-1,-1,-1,-1,-1,-1],"loss_changes":[6.348157E4,2.9271426E3,0E0,6.3152734E2,0E0,8.308594E0,0E0,3.2539062E0,5.314992E-1,5.3515625E-1,1.0170898E0,0E0,0E0,0E0,0E0,0E0,0E0],"parents":[2147483647,0,0,1,1,3,3,5,5,7,7,8,8,9,9,10,10],"right_children":[2,4,-1,6,-1,8,-1,10,12,14,16,-1,-1,-1,-1,-1,-1],"split_conditions":[1E0,1E0,1.1715754E-1,1E0,1.1698027E-1,4.814815E-1,1.4123794E-1,1E0,1.5E1,2E1,2.4E1,7.305422E-2,-2.3838978E-3,-1.16556644E-1,-1.1335393E-1,-1.12614036E-1,-1.0147995E-1],"split_indices":[2,19,0,23,0,13,0,4,1,1,1,0,0,0,0,0,0],"split_type":[0,0,0,0,0,0,0,0,0,0,0,0,0,0,0,0,0],"sum_hessian":[4.937035E4,2.5460973E4,2.3909379E4,2.4904717E4,5.562565E2,2.4809555E4,9.5161156E1,2.4806758E4,2.7967484E0,2.2249748E4,2.5570098E3,1.3471807E0,1.4495678E0,2.022904E4,2.0207089E3,2.3598167E3,1.971931E2],"tree_param":{"num_deleted":"0","num_feature":"36","num_nodes":"17","size_leaf_vector":"1"}},{"base_weights":[2.4336933E-3,-1.0764346E0,1.15259804E-1,-1.1276014E0,1.150736E-1,-1.1368144E0,1.3550909E-1,-1.1370211E0,8.3538584E-2,-1.1426916E0,-1.087695E0,-1.1452885E-1,-1.1126863E-1,-1.1332072E-1,-1.0619568E-1],"categories":[],"categories_nodes":[],"categories_segments":[],"categories_sizes":[],"default_left":[0,0,0,0,0,0,0,0,0,0,0,0,0,0,0],"id":13,"left_children":[1,3,-1,5,-1,7,-1,9,-1,11,13,-1,-1,-1,-1],"loss_changes":[5.628031E4,2.6682363E3,0E0,5.2482227E2,0E0,1.0244141E1,0E0,5.1308594E0,0E0,3.1835938E-1,1.5737305E0,0E0,0E0,0E0,0E0],"parents":[2147483647,0,0,1,1,3,3,5,5,7,7,9,9,10,10],"right_children":[2,4,-1,6,-1,8,-1,10,-1,12,14,-1,-1,-1,-1],"split_conditions":[1E0,1E0,1.15259804E-1,1E0,1.150736E-1,1E0,1.3550909E-1,1E0,8.3538584E-2,1.6E1,3E0,-1.1452885E-1,-1.1126863E-1,-1.1332072E-1,-1.0619568E-1],"split_indices":[2,19,0,23,0,18,0,4,0,20,21,0,0,0,0],"split_type":[0,0,0,0,0,0,0,0,0,0,0,0,0,0,0],"sum_hessian":[4.5353312E4,2.3402006E4,2.1951305E4,2.2876928E4,5.250781E2,2.2792889E4,8.403932E1,2.2790924E4,1.9654734E0,2.0421145E4,2.3697793E3,1.8760281E4,1.660862E3,8.4050586E2,1.5292734E3],"tree_param":{"num_deleted":"0","num_feature":"36","num_nodes":"15","size_leaf_vector":"1"}},{"base_weights":[-1.0025301E-3,-1.0608149E0,1.1359759E-1,-1.1105316E0,1.1339282E-1,-1.1197792E0,1.3095136E-1,-1.1199892E0,8.0755346E-2,-1.1256455E0,-1.0707655E0,-1.12944044E-1,-1.0822932E-1,-1.0735982E-1,-7.545335E-2],"categories":[],"categories_nodes":[],"categories_segments":[],"categories_sizes":[],"default_left":[0,0,0,0,0,0,0,0,0,0,0,0,0,0,0],"id":14,"left_children":[1,3,-1,5,-1,7,-1,9,-1,11,13,-1,-1,-1,-1],"loss_changes":[5.020451E4,2.3541973E3,0E0,4.733828E2,0E0,9.40625E0,0E0,4.640625E0,0E0,1.8769531E0,1.1474609E0,0E0,0E0,0E0,0E0],"parents":[2147483647,0,0,1,1,3,3,5,5,7,7,9,9,10,10],"right_children":[2,4,-1,6,-1,8,-1,10,-1,12,14,-1,-1,-1,-1],"split_conditions":[1E0,1E0,1.1359759E-1,1E0,1.1339282E-1,1E0,1.3095136E-1,1E0,8.0755346E-2,1.6E1,1E0,-1.12944044E-1,-1.0822932E-1,-1.0735982E-1,-7.545335E-2],"split_indices":[2,32,0,23,0,18,0,4,0,20,17,0,0,0,0],"split_type":[0,0,0,0,0,0,0,0,0,0,0,0,0,0,0],"sum_hessian":[4.1662062E4,2.1562791E4,2.0099271E4,2.108564E4,4.7715085E2,2.1005908E4,7.973258E1,2.100404E4,1.8693353E0,1.8819602E4,2.1844382E3,1.7281783E4,1.537818E3,2.1626714E3,2.1766876E1],"tree_param":{"num_deleted":"0","num_feature":"36","num_nodes":"15","size_leaf_vector":"1"}},{"base_weights":[1.002075E-3,-1.0453304E0,1.1213639E-1,-1.0814996E0,1.3840409E-1,-1.0873958E0,-7.1427923E-1,1.0713853E0,-6.4040047E-1,-1.0981023E0,-1.0059718E0,1.0196013E0,-9.7948796E-1,1.1150453E-1,-9.526734E-2,-8.8102156E-1,7.331878E-1,-1.0982642E0,6.540846E-2,6.2157923E-1,-1.0624797E0,1.09342955E-1,-6.539227E-2,-9.9774164E-1,-1.0185559E-1,-9.049256E-1,1.8186016E-1,-1.0055925E-1,1.0939701E-1,-1.09894074E-1,-8.431765E-2,1.0251222E-1,-1.05362214E-1,-1.0642655E-1,2.9235223E-2,6.8138294E-2,-1.010425E-1,-9.042347E-2,1.4340685E-1,-1.1114695E-1,-8.432373E-2,8.714206E-2,-7.937915E-2],"categories":[],"categories_nodes":[],"categories_segments":[],"categories_sizes":[],"default_left":[0,0,0,0,0,0,0,0,0,0,0,0,0,0,0,0,0,0,0,0,0,0,0,0,0,0,0,0,0,0,0,0,0,0,0,0,0,0,0,0,0,0,0],"id":15,"left_children":[1,3,-1,5,7,9,11,13,15,17,19,21,23,-1,-1,25,27,29,-1,31,33,-1,-1,35,37,39,41,-1,-1,-1,-1,-1,-1,-1,-1,-1,-1,-1,-1,-1,-1,-1,-1],"loss_changes":[4.4767914E4,8.456094E2,0E0,4.0710938E1,4.267462E2,1.53359375E1,1.4157951E2,2.4670532E1,1.0648181E2,5.4414062E0,2.0329517E2,5.7866135E0,4.154419E0,0E0,0E0,7.099121E0,3.1386236E1,1.9511719E0,0E0,5.1484634E1,5.463623E0,0E0,0E0,6.228668E0,9.340192E0,2.4660034E0,5.2907577E0,0E0,0E0,0E0,0E0,0E0,0E0,0E0,0E0,0E0,0E0,0E0,0E0,0E0,0E0,0E0,0E0],"parents":[2147483647,0,0,1,1,3,3,4,4,5,5,6,6,7,7,8,8,9,9,10,10,11,11,12,12,15,15,16,16,17,17,19,19,20,20,23,23,24,24,25,25,26,26],"right_children":[2,4,-1,6,8,10,12,14,16,18,20,22,24,-1,-1,26,28,30,-1,32,34,-1,-1,36,38,40,42,-1,-1,-1,-1,-1,-1,-1,-1,-1,-1,-1,-1,-1,-1,-1,-1],"split_conditions":[1E0,2.6E1,1.1213639E-1,2.4E1,1.9E1,1.9E1,1.4E1,8E0,6E0,1E0,1.2E1,7E0,7E0,1.1150453E-1,-9.526734E-2,4.2E1,2E0,3.875E0,6.540846E-2,8E0,1E0,1.09342955E-1,-6.539227E-2,1.7E1,1.7E1,3E0,3E1,-1.0055925E-1,1.0939701E-1,-1.09894074E-1,-8.431765E-2,1.0251222E-1,-1.05362214E-1,-1.0642655E-1,2.9235223E-2,6.8138294E-2,-1.010425E-1,-9.042347E-2,1.4340685E-1,-1.1114695E-1,-8.432373E-2,8.714206E-2,-7.937915E-2],"split_indices":[2,1,0,1,20,1,20,21,12,18,20,21,21,0,0,1,3,15,0,21,25,0,0,20,20,21,20,0,0,0,0,0,0,0,0,0,0,0,0,0,0,0,0],"split_type":[0,0,0,0,0,0,0,0,0,0,0,0,0,0,0,0,0,0,0,0,0,0,0,0,0,0,0,0,0,0,0,0,0,0,0,0,0,0,0,0,0,0,0],"sum_hessian":[3.818705E4,1.9745928E4,1.8441123E4,1.916056E4,5.8536694E2,1.8855844E4,3.047167E2,2.661512E2,3.192157E2,1.665356E4,2.202283E3,4.0047802E1,2.646689E2,2.6097104E2,5.1801805E0,2.7193716E2,4.727854E1,1.6652395E4,1.1657379E0,7.356122E1,2.128722E3,3.8687706E1,1.3600947E0,2.591422E2,5.5266957E0,2.6610123E2,5.835956E0,7.817081E0,3.946146E1,1.6605053E4,4.734145E1,5.959364E1,1.396758E1,2.126134E3,2.5878232E0,1.5475082E0,2.5759473E2,3.9003816E0,1.6263143E0,5.7284523E1,2.088167E2,3.4818935E0,2.3540623E0],"tree_param":{"num_deleted":"0","num_feature":"36","num_nodes":"43","size_leaf_vector":"1"}},{"base_weights":[2.7841236E-3,-1.0289831E0,1.1084785E-1,-1.0774642E0,1.10839225E-1,-1.0883741E0,1.2990879E-1,-1.0885961E0,7.60532E-2,-1.0953907E0,-1.0299304E0,-1.0994293E-1,-1.05466954E-1,-1.03347324E-1,-6.1550386E-2],"categories":[],"categories_nodes":[],"categories_segments":[],"categories_sizes":[],"default_left":[0,0,0,0,0,0,0,0,0,0,0,0,0,0,0],"id":16,"left_children":[1,3,-1,5,-1,7,-1,9,-1,11,13,-1,-1,-1,-1],"loss_changes":[3.990155E4,1.8760273E3,0E0,4.6013477E2,0E0,8.058594E0,0E0,5.890625E0,0E0,1.4335938E0,2.0721436E0,0E0,0E0,0E0,0E0],"parents":[2147483647,0,0,1,1,3,3,5,5,7,7,9,9,10,10],"right_children":[2,4,-1,6,-1,8,-1,10,-1,12,14,-1,-1,-1,-1],"split_conditions":[1E0,1E0,1.1084785E-1,1E0,1.10839225E-1,1E0,1.2990879E-1,1E0,7.60532E-2,2.7E1,2E-1,-1.0994293E-1,-1.05466954E-1,-1.03347324E-1,-6.1550386E-2],"split_indices":[2,19,0,23,0,18,0,4,0,0,13,0,0,0,0],"split_type":[0,0,0,0,0,0,0,0,0,0,0,0,0,0,0],"sum_hessian":[3.4974223E4,1.8091963E4,1.6882258E4,1.7691178E4,4.007849E2,1.7610875E4,8.030298E1,1.7609172E4,1.703479E0,1.5765564E4,1.8436073E3,1.4319426E4,1.4461384E3,1.8264988E3,1.710859E1],"tree_param":{"num_deleted":"0","num_feature":"36","num_nodes":"15","size_leaf_vector":"1"}},{"base_weights":[1.6922998E-3,-1.0167922E0,1.09708406E-1,-1.0645504E0,1.0965624E-1,-1.0751452E0,1.260737E-1,-1.0753727E0,7.3678724E-2,-1.0831174E0,-1.0085663E0,-1.08637765E-1,-1.0501119E-1,-1.0206971E-1,-8.569124E-2],"categories":[],"categories_nodes":[],"categories_segments":[],"categories_sizes":[],"default_left":[0,0,0,0,0,0,0,0,0,0,0,0,0,0,0],"id":17,"left_children":[1,3,-1,5,-1,7,-1,9,-1,11,13,-1,-1,-1,-1],"loss_changes":[3.56937E4,1.6744824E3,0E0,4.0078516E2,0E0,7.4433594E0,0E0,7.2578125E0,0E0,4.140625E-1,2.2364502E0,0E0,0E0,0E0,0E0],"parents":[2147483647,0,0,1,1,3,3,5,5,7,7,9,9,10,10],"right_children":[2,4,-1,6,-1,8,-1,10,-1,12,14,-1,-1,-1,-1],"split_conditions":[3E0,1E0,1.09708406E-1,1E0,1.0965624E-1,1E0,1.260737E-1,1E0,7.3678724E-2,2.7E1,3.1E1,-1.08637765E-1,-1.0501119E-1,-1.0206971E-1,-8.569124E-2],"split_indices":[6,19,0,23,0,18,0,4,0,0,0,0,0,0,0],"split_type":[0,0,0,0,0,0,0,0,0,0,0,0,0,0,0],"sum_hessian":[3.1991938E4,1.6577973E4,1.5413965E4,1.6212104E4,3.6586987E2,1.6139105E4,7.299782E1,1.6137486E4,1.6191356E0,1.4447411E4,1.690075E3,1.31195625E4,1.327849E3,1.5595914E3,1.3048352E2],"tree_param":{"num_deleted":"0","num_feature":"36","num_nodes":"15","size_leaf_vector":"1"}},{"base_weights":[6.7126704E-4,-1.0055016E0,1.086983E-1,-1.038062E0,1.13086216E-1,-1.051235E0,4.13472E-1,-1.061861E0,-7.0831996E-1,-1.06872834E-1,1.0014272E0,-1.0697279E0,-9.907049E-1,-9.1549623E-1,-2.0275478E-1,1.043625E0,-3.0107018E-1,-1.0699029E-1,5.8909982E-2,-9.988811E-2,-1.4399128E-2,-9.569713E-2,-2.6923561E-2,1.0650084E-1,-8.987267E-2,2.04624E-2,1.07191265E-1,-7.006989E-2,3.8222145E-2],"categories":[],"categories_nodes":[],"categories_segments":[],"categories_sizes":[],"default_left":[0,0,0,0,0,0,0,0,0,0,0,0,0,0,0,0,0,0,0,0,0,0,0,0,0,0,0,0,0],"id":18,"left_children":[1,3,-1,5,-1,7,9,11,13,-1,15,17,19,21,23,25,27,-1,-1,-1,-1,-1,-1,-1,-1,-1,-1,-1,-1],"loss_changes":[3.1947379E4,1.0566895E3,0E0,2.862334E2,0E0,5.3223633E1,1.18843185E2,6.9814453E0,4.6760727E1,0E0,5.660797E0,4.381836E0,9.850342E0,8.256378E0,1.170441E2,2.0222244E0,1.3133119E0,0E0,0E0,0E0,0E0,0E0,0E0,0E0,0E0,0E0,0E0,0E0,0E0],"parents":[2147483647,0,0,1,1,3,3,5,5,6,6,7,7,8,8,10,10,11,11,12,12,13,13,14,14,15,15,16,16],"right_children":[2,4,-1,6,-1,8,10,12,14,-1,16,18,20,22,24,26,28,-1,-1,-1,-1,-1,-1,-1,-1,-1,-1,-1,-1],"split_conditions":[3E0,1E0,1.086983E-1,4.265545E0,1.13086216E-1,3.1E1,2E0,1E0,2E0,-1.06872834E-1,6E0,1E0,5E0,4E0,5E0,1E0,4.5E1,-1.0699029E-1,5.8909982E-2,-9.988811E-2,-1.4399128E-2,-9.569713E-2,-2.6923561E-2,1.0650084E-1,-8.987267E-2,2.04624E-2,1.07191265E-1,-7.006989E-2,3.8222145E-2],"split_indices":[6,23,0,16,0,0,3,4,3,0,21,18,12,21,21,12,0,0,0,0,0,0,0,0,0,0,0,0,0],"split_type":[0,0,0,0,0,0,0,0,0,0,0,0,0,0,0,0,0,0,0,0,0,0,0,0,0,0,0,0,0],"sum_hessian":[2.922661E4,1.517301E4,1.40536E4,1.4945736E4,2.2727385E2,1.4811593E4,1.3414326E2,1.4364379E4,4.4721344E2,3.786646E1,9.627681E1,1.2921748E4,1.4426315E3,3.1664444E2,1.30569E2,9.344806E1,2.8287504E0,1.292074E4,1.0080013E0,1.4286561E3,1.3975311E1,2.9709686E2,1.9547565E1,4.6087334E1,8.448167E1,3.3164666E0,9.01316E1,1.768786E0,1.0599645E0],"tree_param":{"num_deleted":"0","num_feature":"36","num_nodes":"29","size_leaf_vector":"1"}},{"base_weights":[1.5129247E-3,-9.908564E-1,1.07800916E-1,-1.0394365E0,1.07886374E-1,-1.0504444E0,1.2015195E-1,-1.0595893E0,-9.7269875E-1,-1.0598618E0,6.96381E-2,-9.7705424E-1,-5.1688194E-1,-1.0601776E-1,-4.0179536E-2,-9.595467E-2,-1.0804018E-1,1.8933121E-2,-9.837406E-2],"categories":[],"categories_nodes":[],"categories_segments":[],"categories_sizes":[],"default_left":[0,0,0,0,0,0,0,0,0,0,0,0,0,0,0,0,0,0,0],"id":19,"left_children":[1,3,-1,5,-1,7,-1,9,11,13,-1,15,17,-1,-1,-1,-1,-1,-1],"loss_changes":[2.8507057E4,1.3972188E3,0E0,3.3594043E2,0E0,8.5703125E0,0E0,6.5146484E0,2.340332E0,2.0810547E0,0E0,1.5297852E0,5.3586264E0,0E0,0E0,0E0,0E0,0E0,0E0],"parents":[2147483647,0,0,1,1,3,3,5,5,7,7,8,8,9,9,11,11,12,12],"right_children":[2,4,-1,6,-1,8,-1,10,12,14,-1,16,18,-1,-1,-1,-1,-1,-1],"split_conditions":[1E0,1E0,1.07800916E-1,1E0,1.07886374E-1,1E0,1.2015195E-1,1E0,2E-1,1E0,6.96381E-2,1.5625E-2,2.236842E-1,-1.0601776E-1,-4.0179536E-2,-9.595467E-2,-1.0804018E-1,1.8933121E-2,-9.837406E-2],"split_indices":[2,19,0,23,0,4,0,18,13,25,0,13,13,0,0,0,0,0,0],"split_type":[0,0,0,0,0,0,0,0,0,0,0,0,0,0,0,0,0,0,0],"sum_hessian":[2.6682959E4,1.3884029E4,1.2798931E4,1.3566106E4,3.1792273E2,1.3500322E4,6.5784706E1,1.206817E4,1.432152E3,1.2066693E4,1.4765031E0,1.4174639E3,1.4688037E1,1.2060295E4,6.3981085E0,1.220919E3,1.9654488E2,6.082121E0,8.605916E0],"tree_param":{"num_deleted":"0","num_feature":"36","num_nodes":"19","size_leaf_vector":"1"}},{"base_weights":[-2.0313587E-3,-9.825619E-1,1.0700206E-1,-1.0294931E0,1.07017495E-1,-1.0398229E0,1.17276326E-1,-1.049454E0,-9.5866483E-1,-1.0496411E0,2.2303768E-2,-1.0312619E-1,-9.1801965E-1,-1.05418935E-1,-9.766101E-2,-9.290013E-2,-3.345212E-2],"categories":[],"categories_nodes":[],"categories_segments":[],"categories_sizes":[],"default_left":[0,0,0,0,0,0,0,0,0,0,0,0,0,0,0,0,0],"id":20,"left_children":[1,3,-1,5,-1,7,-1,9,11,13,-1,-1,15,-1,-1,-1,-1],"loss_changes":[2.56006E4,1.2265176E3,0E0,2.841328E2,0E0,8.669922E0,0E0,2.866211E0,2.9621582E0,2.6416016E0,0E0,0E0,5.18927E0,0E0,0E0,0E0,0E0],"parents":[2147483647,0,0,1,1,3,3,5,5,7,7,8,8,9,9,12,12],"right_children":[2,4,-1,6,-1,8,-1,10,12,14,-1,-1,16,-1,-1,-1,-1],"split_conditions":[1E0,1E0,1.0700206E-1,1E0,1.07017495E-1,1E0,1.17276326E-1,5E-1,3E0,1.7E1,2.2303768E-2,-1.0312619E-1,2.4E1,-1.05418935E-1,-9.766101E-2,-9.290013E-2,-3.345212E-2],"split_indices":[2,19,0,23,0,4,0,13,21,20,0,0,20,0,0,0,0],"split_type":[0,0,0,0,0,0,0,0,0,0,0,0,0,0,0,0,0],"sum_hessian":[2.4352164E4,1.2719038E4,1.1633126E4,1.2435232E4,2.8380502E2,1.2377701E4,5.7531094E1,1.1053995E4,1.323706E3,1.1052545E4,1.4500989E0,4.6635968E2,8.5734644E2,1.0391921E4,6.6062427E2,8.409278E2,1.6418625E1],"tree_param":{"num_deleted":"0","num_feature":"36","num_nodes":"17","size_leaf_vector":"1"}},{"base_weights":[8.383816E-4,-9.7217906E-1,1.0628978E-1,-1.0193182E0,1.0624186E-1,-1.0295621E0,1.15068115E-1,-1.039354E0,-9.4735724E-1,-1.0458634E0,-9.6730083E-1,-9.823419E-2,-8.509004E-1,-1.0460774E-1,2.89803E-2,-9.718646E-2,1.3282093E-1,-5.376577E-2,-9.307373E-2],"categories":[],"categories_nodes":[],"categories_segments":[],"categories_sizes":[],"default_left":[0,0,0,0,0,0,0,0,0,0,0,0,0,0,0,0,0,0,0],"id":21,"left_children":[1,3,-1,5,-1,7,-1,9,11,13,15,-1,17,-1,-1,-1,-1,-1,-1],"loss_changes":[2.2983432E4,1.1142852E3,0E0,2.533623E2,0E0,8.105469E0,0E0,3.7148438E0,3.2578125E0,2.9433594E0,1.0179504E1,0E0,7.761551E0,0E0,0E0,0E0,0E0,0E0,0E0],"parents":[2147483647,0,0,1,1,3,3,5,5,7,7,8,8,9,9,10,10,12,12],"right_children":[2,4,-1,6,-1,8,-1,10,12,14,16,-1,18,-1,-1,-1,-1,-1,-1],"split_conditions":[1E0,1E0,1.0628978E-1,1E0,1.0624186E-1,1E0,1.15068115E-1,1.6E1,2.6E1,4.722222E-1,1E0,-9.823419E-2,1.6E1,-1.0460774E-1,2.89803E-2,-9.718646E-2,1.3282093E-1,-5.376577E-2,-9.307373E-2],"split_indices":[2,19,0,23,0,4,0,20,0,13,25,0,20,0,0,0,0,0,0],"split_type":[0,0,0,0,0,0,0,0,0,0,0,0,0,0,0,0,0,0,0],"sum_hessian":[2.2238547E4,1.1605826E4,1.0632721E4,1.134351E4,2.623165E2,1.1290735E4,5.277421E1,1.0078579E4,1.2121566E3,9.2311045E3,8.474746E2,8.827875E2,3.293692E2,9.229842E3,1.2623539E0,8.463686E2,1.1060559E0,6.846783E1,2.6090137E2],"tree_param":{"num_deleted":"0","num_feature":"36","num_nodes":"19","size_leaf_vector":"1"}},{"base_weights":[9.561422E-5,-9.649999E-1,1.0565362E-1,-1.011075E0,1.05507724E-1,-1.0212475E0,1.130101E-1,-1.0325738E0,-9.2805517E-1,6.604747E-2,-1.0328951E0,-1.0091603E-1,-8.831056E-1,-1.03884794E-1,-9.66719E-2,-8.96003E-2,-2.145191E-2],"categories":[],"categories_nodes":[],"categories_segments":[],"categories_sizes":[],"default_left":[0,0,0,0,0,0,0,0,0,0,0,0,0,0,0,0,0],"id":22,"left_children":[1,3,-1,5,-1,7,-1,9,11,-1,13,-1,15,-1,-1,-1,-1],"loss_changes":[2.066536E4,9.869492E2,0E0,2.2673242E2,0E0,9.921875E0,0E0,5.6777344E0,3.2172852E0,0E0,2.6123047E0,0E0,6.1292725E0,0E0,0E0,0E0,0E0],"parents":[2147483647,0,0,1,1,3,3,5,5,7,7,8,8,10,10,12,12],"right_children":[2,4,-1,6,-1,8,-1,10,12,-1,14,-1,16,-1,-1,-1,-1],"split_conditions":[1E0,1E0,1.0565362E-1,1E0,1.05507724E-1,1E0,1.130101E-1,2E0,3E0,6.604747E-2,1.6E1,-1.0091603E-1,2.4E1,-1.03884794E-1,-9.66719E-2,-8.96003E-2,-2.145191E-2],"split_indices":[2,19,0,23,0,4,0,21,21,0,20,0,20,0,0,0,0],"split_type":[0,0,0,0,0,0,0,0,0,0,0,0,0,0,0,0,0],"sum_hessian":[2.026678E4,1.0591321E4,9.675457E3,1.0355624E4,2.3569754E2,1.0307179E4,4.844514E1,9.181242E3,1.1259368E3,1.352277E0,9.17989E3,3.9384653E2,7.320902E2,8.408775E3,7.7111426E2,7.179013E2,1.4188925E1],"tree_param":{"num_deleted":"0","num_feature":"36","num_nodes":"17","size_leaf_vector":"1"}},{"base_weights":[5.9314386E-4,-9.533856E-1,1.05084635E-1,-9.9883205E-1,1.0487993E-1,-1.0087034E0,1.1110085E-1,-1.0226225E0,-8.951575E-1,-1.0313221E0,-9.3775535E-1,-9.9778205E-2,-8.396455E-1,-1.0315688E-1,2.974957E-2,-9.581469E-2,-5.3800404E-2,-9.00229E-2,-6.8125874E-2],"categories":[],"categories_nodes":[],"categories_segments":[],"categories_sizes":[],"default_left":[0,0,0,0,0,0,0,0,0,0,0,0,0,0,0,0,0,0,0],"id":23,"left_children":[1,3,-1,5,-1,7,-1,9,11,13,15,-1,17,-1,-1,-1,-1,-1,-1],"loss_changes":[1.8498232E4,8.813838E2,0E0,1.9815527E2,0E0,1.3966797E1,0E0,5.2216797E0,5.066284E0,2.7949219E0,5.927063E0,0E0,5.900879E0,0E0,0E0,0E0,0E0,0E0,0E0],"parents":[2147483647,0,0,1,1,3,3,5,5,7,7,8,8,9,9,10,10,12,12],"right_children":[2,4,-1,6,-1,8,-1,10,12,14,16,-1,18,-1,-1,-1,-1,-1,-1],"split_conditions":[1E0,1E0,1.05084635E-1,1E0,1.0487993E-1,1E0,1.1110085E-1,2E1,3E0,1.1E1,1E0,-9.9778205E-2,1.9E1,-1.0315688E-1,2.974957E-2,-9.581469E-2,-5.3800404E-2,-9.00229E-2,-6.8125874E-2],"split_indices":[2,19,0,23,0,4,0,1,21,12,31,0,1,0,0,0,0,0,0],"split_type":[0,0,0,0,0,0,0,0,0,0,0,0,0,0,0,0,0,0,0],"sum_hessian":[1.8460799E4,9.673835E3,8.786963E3,9.459617E3,2.1421751E2,9.416085E3,4.353306E1,8.380726E3,1.0353594E3,7.591378E3,7.893471E2,3.5749228E2,6.7786707E2,7.590193E3,1.1852427E0,7.4970734E2,3.9639774E1,4.8693063E2,1.9093645E2],"tree_param":{"num_deleted":"0","num_feature":"36","num_nodes":"19","size_leaf_vector":"1"}},{"base_weights":[-7.659855E-4,-9.4834304E-1,1.04575135E-1,-9.9414927E-1,1.0430896E-1,-1.0043986E0,1.09625794E-1,-1.0181696E0,-8.933941E-1,-1.0185218E0,3.945713E-2,-9.1486377E-1,-6.4824045E-1,-1.02515616E-1,-9.257099E-2,-9.9076465E-2,-8.781542E-2,-1.6327074E-2,-8.340459E-2],"categories":[],"categories_nodes":[],"categories_segments":[],"categories_sizes":[],"default_left":[0,0,0,0,0,0,0,0,0,0,0,0,0,0,0,0,0,0,0],"id":24,"left_children":[1,3,-1,5,-1,7,-1,9,11,13,-1,15,17,-1,-1,-1,-1,-1,-1],"loss_changes":[1.6695791E4,8.0703955E2,0E0,1.8616504E2,0E0,1.2230469E1,0E0,4.2041016E0,4.4433594E0,3.7543945E0,0E0,1.574646E0,7.1161385E0,0E0,0E0,0E0,0E0,0E0,0E0],"parents":[2147483647,0,0,1,1,3,3,5,5,7,7,8,8,9,9,11,11,12,12],"right_children":[2,4,-1,6,-1,8,-1,10,12,14,-1,16,18,-1,-1,-1,-1,-1,-1],"split_conditions":[1E0,1E0,1.04575135E-1,1E0,1.0430896E-1,1E0,1.09625794E-1,4.814815E-1,2.4E1,2.1E1,3.945713E-2,1.4E1,3.9690015E0,-1.02515616E-1,-9.257099E-2,-9.9076465E-2,-8.781542E-2,-1.6327074E-2,-8.340459E-2],"split_indices":[2,19,0,23,0,4,0,13,1,1,0,1,16,0,0,0,0,0,0],"split_type":[0,0,0,0,0,0,0,0,0,0,0,0,0,0,0,0,0,0,0],"sum_hessian":[1.6834275E4,8.834816E3,7.999458E3,8.63666E3,1.9815648E2,8.595038E3,4.1622E1,7.6391626E3,9.558756E2,7.637537E3,1.6252967E0,8.763927E2,7.948287E1,7.118644E3,5.188928E2,2.7722067E2,5.9917206E2,2.2537249E1,5.694562E1],"tree_param":{"num_deleted":"0","num_feature":"36","num_nodes":"19","size_leaf_vector":"1"}},{"base_weights":[9.920845E-4,-9.388343E-1,1.04118325E-1,-9.830875E-1,1.037576E-1,-9.927103E-1,1.0800608E-1,-1.0091659E0,-8.6133134E-1,-1.0186093E0,-9.1839427E-1,-9.766335E-2,-8.00348E-1,-1.0188877E-1,2.773787E-2,-9.428362E-2,-4.6448022E-2,-8.2240306E-2,1.4211309E-2],"categories":[],"categories_nodes":[],"categories_segments":[],"categories_sizes":[],"default_left":[0,0,0,0,0,0,0,0,0,0,0,0,0,0,0,0,0,0,0],"id":25,"left_children":[1,3,-1,5,-1,7,-1,9,11,13,15,-1,17,-1,-1,-1,-1,-1,-1],"loss_changes":[1.4996392E4,7.058613E2,0E0,1.5757178E2,0E0,1.6095215E1,0E0,5.036621E0,5.407898E0,2.555664E0,6.9590454E0,0E0,1.2199463E1,0E0,0E0,0E0,0E0,0E0,0E0],"parents":[2147483647,0,0,1,1,3,3,5,5,7,7,8,8,9,9,10,10,12,12],"right_children":[2,4,-1,6,-1,8,-1,10,12,14,16,-1,18,-1,-1,-1,-1,-1,-1],"split_conditions":[1E0,1E0,1.04118325E-1,1E0,1.037576E-1,1E0,1.0800608E-1,2.7E1,3E0,4.722222E-1,2.8037382E-2,-9.766335E-2,2.4E1,-1.0188877E-1,2.773787E-2,-9.428362E-2,-4.6448022E-2,-8.2240306E-2,1.4211309E-2],"split_indices":[2,19,0,23,0,4,0,0,21,13,13,0,20,0,0,0,0,0,0],"split_type":[0,0,0,0,0,0,0,0,0,0,0,0,0,0,0,0,0,0,0],"sum_hessian":[1.5338022E4,8.0577954E3,7.280227E3,7.881819E3,1.759766E2,7.845744E3,3.607475E1,6.96649E3,8.792537E2,6.3007686E3,6.6572186E2,2.9897083E2,5.802829E2,6.2996294E3,1.139168E0,6.3068427E2,3.503761E1,5.6713837E2,1.314452E1],"tree_param":{"num_deleted":"0","num_feature":"36","num_nodes":"19","size_leaf_vector":"1"}},{"base_weights":[1.1334401E-3,-9.28897E-1,1.0370827E-1,-9.7347695E-1,1.0328901E-1,-9.837475E-1,1.0689926E-1,-1.0023844E0,-8.3751404E-1,-1.0116085E0,-8.764718E-1,-8.44938E-1,-1.711656E-1,-1.01435855E-1,-7.3981084E-2,-9.157758E-2,-6.6706883E-3,-8.180225E-2,-1.03425264E-1,5.8875855E-2,-8.698423E-2],"categories":[],"categories_nodes":[],"categories_segments":[],"categories_sizes":[],"default_left":[0,0,0,0,0,0,0,0,0,0,0,0,0,0,0,0,0,0,0,0,0],"id":26,"left_children":[1,3,-1,5,-1,7,-1,9,11,13,15,17,19,-1,-1,-1,-1,-1,-1,-1,-1],"loss_changes":[1.3450095E4,6.443447E2,0E0,1.5194531E2,0E0,1.866748E1,0E0,6.480957E0,3.8880615E0,3.6625977E0,1.3958008E1,3.26062E0,5.946924E0,0E0,0E0,0E0,0E0,0E0,0E0,0E0,0E0],"parents":[2147483647,0,0,1,1,3,3,5,5,7,7,8,8,9,9,10,10,11,11,12,12],"right_children":[2,4,-1,6,-1,8,-1,10,12,14,16,18,20,-1,-1,-1,-1,-1,-1,-1,-1],"split_conditions":[1E0,1E0,1.0370827E-1,1E0,1.0328901E-1,1E0,1.0689926E-1,2.1E1,2E-1,2.173913E-1,2.8037382E-2,4.2857144E-2,2.236842E-1,-1.01435855E-1,-7.3981084E-2,-9.157758E-2,-6.6706883E-3,-8.180225E-2,-1.03425264E-1,5.8875855E-2,-8.698423E-2],"split_indices":[2,19,0,23,0,4,0,1,13,13,13,13,13,0,0,0,0,0,0,0,0],"split_type":[0,0,0,0,0,0,0,0,0,0,0,0,0,0,0,0,0,0,0,0,0],"sum_hessian":[1.3958137E4,7.3551255E3,6.6030107E3,7.1921934E3,1.6293256E2,7.156724E3,3.5469135E1,6.3425376E3,8.1418665E2,5.9030586E3,4.3947894E2,8.0495044E2,9.236155E0,5.8412236E3,6.1834766E1,4.1901028E2,2.0468636E1,7.09412E2,9.553847E1,4.4995203E0,4.7366343E0],"tree_param":{"num_deleted":"0","num_feature":"36","num_nodes":"21","size_leaf_vector":"1"}},{"base_weights":[2.6378543E-3,-9.1861594E-1,1.0333991E-1,-9.619127E-1,1.02829054E-1,-9.721879E-1,1.0561526E-1,-9.90874E-1,-8.2709306E-1,-1.0014458E0,-8.7956774E-1,-9.563465E-2,-7.5944996E-1,6.345467E-2,-1.0019584E-1,-8.947313E-2,2.28795E-1,-7.7182814E-2,1.4135954E-2],"categories":[],"categories_nodes":[],"categories_segments":[],"categories_sizes":[],"default_left":[0,0,0,0,0,0,0,0,0,0,0,0,0,0,0,0,0,0,0],"id":27,"left_children":[1,3,-1,5,-1,7,-1,9,11,13,15,-1,17,-1,-1,-1,-1,-1,-1],"loss_changes":[1.2075692E4,5.670327E2,0E0,1.3725244E2,0E0,1.690332E1,0E0,5.9277344E0,5.847107E0,5.0600586E0,2.6547028E1,0E0,5.666504E0,0E0,0E0,0E0,0E0,0E0,0E0],"parents":[2147483647,0,0,1,1,3,3,5,5,7,7,8,8,9,9,10,10,12,12],"right_children":[2,4,-1,6,-1,8,-1,10,12,14,16,-1,18,-1,-1,-1,-1,-1,-1],"split_conditions":[1E0,1E0,1.0333991E-1,1E0,1.02829054E-1,1E0,1.0561526E-1,1.6E1,3E0,2E0,7E0,-9.563465E-2,1E0,6.345467E-2,-1.0019584E-1,-8.947313E-2,2.28795E-1,-7.7182814E-2,1.4135954E-2],"split_indices":[2,19,0,23,0,4,0,20,21,21,21,0,17,0,0,0,0,0,0],"split_type":[0,0,0,0,0,0,0,0,0,0,0,0,0,0,0,0,0,0,0],"sum_hessian":[1.2714707E4,6.7140566E3,6.0006504E3,6.568488E3,1.4556905E2,6.5357285E3,3.275917E1,5.7848896E3,7.508389E2,5.2758E3,5.0908954E2,2.534345E2,4.9740445E2,1.264874E0,5.274535E3,5.0737817E2,1.7113895E0,4.9080344E2,6.601015E0],"tree_param":{"num_deleted":"0","num_feature":"36","num_nodes":"19","size_leaf_vector":"1"}},{"base_weights":[1.2501292E-3,-9.14951E-1,1.0300863E-1,-9.584804E-1,1.024425E-1,-9.683126E-1,1.0435982E-1,-9.865526E-1,-8.619229E-1,-9.8731804E-1,5.359012E-1,-8.662087E-1,1.23956405E-1,-9.984753E-2,-8.835616E-2,-5.6403603E-2,1.4701061E-1,-8.8102095E-2,-1.5899993E-2],"categories":[],"categories_nodes":[],"categories_segments":[],"categories_sizes":[],"default_left":[0,0,0,0,0,0,0,0,0,0,0,0,0,0,0,0,0,0,0],"id":28,"left_children":[1,3,-1,5,-1,7,-1,9,11,13,15,17,-1,-1,-1,-1,-1,-1,-1],"loss_changes":[1.0914652E4,5.1803613E2,0E0,1.1893848E2,0E0,1.0719727E1,0E0,6.4521484E0,9.003784E0,4.998535E0,4.119665E0,9.070801E0,0E0,0E0,0E0,0E0,0E0,0E0,0E0],"parents":[2147483647,0,0,1,1,3,3,5,5,7,7,8,8,9,9,10,10,11,11],"right_children":[2,4,-1,6,-1,8,-1,10,12,14,16,18,-1,-1,-1,-1,-1,-1,-1],"split_conditions":[1E0,1E0,1.0300863E-1,1E0,1.024425E-1,2.6E1,1.0435982E-1,3E0,1E0,1E0,2.3E1,7E0,1.23956405E-1,-9.984753E-2,-8.835616E-2,-5.6403603E-2,1.4701061E-1,-8.8102095E-2,-1.5899993E-2],"split_indices":[2,19,0,23,0,0,0,4,25,4,0,21,0,0,0,0,0,0,0],"split_type":[0,0,0,0,0,0,0,0,0,0,0,0,0,0,0,0,0,0,0],"sum_hessian":[1.1577049E4,6.12379E3,5.4532583E3,5.989853E3,1.3393684E2,5.9610947E3,2.875848E1,5.081604E3,8.794904E2,5.079402E3,2.2021985E0,8.7828705E2,1.2033509E0,4.578444E3,5.0095825E2,1.1933646E0,1.0088339E0,8.600282E2,1.8258839E1],"tree_param":{"num_deleted":"0","num_feature":"36","num_nodes":"19","size_leaf_vector":"1"}},{"base_weights":[2.9016424E-3,-9.029039E-1,1.0271042E-1,-9.4579685E-1,1.0204307E-1,-9.546605E-1,1.0286405E-1,-9.747176E-1,-8.0365765E-1,-9.8829496E-1,-8.336735E-1,-9.719949E-2,-7.1752346E-1,-9.921838E-2,-6.289514E-2,-8.709701E-2,-2.0374449E-2,-7.468533E-2,3.5629045E-2],"categories":[],"categories_nodes":[],"categories_segments":[],"categories_sizes":[],"default_left":[0,0,0,0,0,0,0,0,0,0,0,0,0,0,0,0,0,0,0],"id":29,"left_children":[1,3,-1,5,-1,7,-1,9,11,13,15,-1,17,-1,-1,-1,-1,-1,-1],"loss_changes":[9.776085E3,4.6229492E2,0E0,9.67207E1,0E0,1.5712891E1,0E0,8.374512E0,8.645081E0,5.491211E0,9.882111E0,0E0,1.3810516E1,0E0,0E0,0E0,0E0,0E0,0E0],"parents":[2147483647,0,0,1,1,3,3,5,5,7,7,8,8,9,9,10,10,12,12],"right_children":[2,4,-1,6,-1,8,-1,10,12,14,16,-1,18,-1,-1,-1,-1,-1,-1],"split_conditions":[1E0,1E0,1.0271042E-1,1E0,1.0204307E-1,1E0,1.0286405E-1,1.6E1,3E0,2.173913E-1,2.8037382E-2,-9.719949E-2,2.4E1,-9.921838E-2,-6.289514E-2,-8.709701E-2,-2.0374449E-2,-7.468533E-2,3.5629045E-2],"split_indices":[2,19,0,23,0,4,0,20,21,13,13,0,20,0,0,0,0,0,0],"split_type":[0,0,0,0,0,0,0,0,0,0,0,0,0,0,0,0,0,0,0],"sum_hessian":[1.0535661E4,5.59105E3,4.944611E3,5.469579E3,1.21470634E2,5.445649E3,2.3930122E1,4.802321E3,6.433283E2,4.375149E3,4.2717175E2,2.1427425E2,4.2905405E2,4.326565E3,4.8584164E1,4.0293246E2,2.4239292E1,4.17943E2,1.1111048E1],"tree_param":{"num_deleted":"0","num_feature":"36","num_nodes":"19","size_leaf_vector":"1"}},{"base_weights":[4.5983368E-3,-8.8986313E-1,1.0244172E-1,-9.255657E-1,1.8850338E-1,-9.534734E-1,-7.140664E-1,-5.064648E-1,7.1897227E-1,-9.7177625E-1,-7.744196E-1,-7.2663736E-1,2.3948547E-1,1.5457667E-1,-6.155867E-1,9.1466177E-1,-7.609687E-1,-9.7521096E-1,-7.7525645E-1,-7.8598195E-1,1.862852E-1,-8.7284356E-1,-6.5579414E-1,-8.075742E-2,1.1723276E0,-8.925193E-2,1.7856034E0,-4.7086003E-1,-9.533364E-2,1.009995E-1,4.2700556E-1,-8.579606E-2,-1.983395E-2,-5.5382457E-2,-9.761176E-2,2.0871662E-1,-9.360997E-2,-8.063908E-2,3.22853E-2,-8.868954E-2,5.914663E-2,-7.2248146E-2,-4.6669148E-2,3.0784264E-1,-3.6844026E-2,-5.1950406E-2,2.5748166E-1,-6.2010467E-2,8.1402905E-2,-6.568919E-2,7.592695E-2],"categories":[],"categories_nodes":[],"categories_segments":[],"categories_sizes":[],"default_left":[0,0,0,0,0,0,0,0,0,0,0,0,0,0,0,0,0,0,0,0,0,0,0,0,0,0,0,0,0,0,0,0,0,0,0,0,0,0,0,0,0,0,0,0,0,0,0,0,0,0,0],"id":30,"left_children":[1,3,-1,5,7,9,11,13,15,17,19,21,23,25,27,29,31,33,35,37,-1,39,41,-1,43,-1,45,47,-1,-1,49,-1,-1,-1,-1,-1,-1,-1,-1,-1,-1,-1,-1,-1,-1,-1,-1,-1,-1,-1,-1],"loss_changes":[8.745214E3,1.9681348E2,0E0,2.85E1,6.101188E1,1.355127E1,7.130066E0,5.2743587E0,2.783511E1,1.9143066E0,1.3957169E1,5.3625183E0,9.056429E0,2.0332712E1,2.5733147E0,3.4375992E0,4.568348E-1,9.4311523E-1,3.5485203E1,9.507278E0,0E0,4.3105927E0,4.5809326E0,0E0,1.5227523E1,0E0,9.748332E0,9.183412E0,0E0,0E0,6.023638E0,0E0,0E0,0E0,0E0,0E0,0E0,0E0,0E0,0E0,0E0,0E0,0E0,0E0,0E0,0E0,0E0,0E0,0E0,0E0,0E0],"parents":[2147483647,0,0,1,1,3,3,4,4,5,5,6,6,7,7,8,8,9,9,10,10,11,11,12,12,13,13,14,14,15,15,16,16,17,17,18,18,19,19,21,21,22,22,24,24,26,26,27,27,30,30],"right_children":[2,4,-1,6,8,10,12,14,16,18,20,22,24,26,28,30,32,34,36,38,-1,40,42,-1,44,-1,46,48,-1,-1,50,-1,-1,-1,-1,-1,-1,-1,-1,-1,-1,-1,-1,-1,-1,-1,-1,-1,-1,-1,-1],"split_conditions":[1E0,3.3E1,1.0244172E-1,1E0,2E0,2.7E1,1E0,3.8695767E0,6E0,3.75E0,1E0,3E0,2.6E1,3.551191E0,4.1523914E0,5E0,3.8E1,1.3E1,3.884155E0,7E0,1.862852E-1,2E0,2.6E1,-8.075742E-2,2.8E1,-8.925193E-2,3E0,4.1261067E0,-9.533364E-2,1.009995E-1,4.0392118E0,-8.579606E-2,-1.983395E-2,-5.5382457E-2,-9.761176E-2,2.0871662E-1,-9.360997E-2,-8.063908E-2,3.22853E-2,-8.868954E-2,5.914663E-2,-7.2248146E-2,-4.6669148E-2,3.0784264E-1,-3.6844026E-2,-5.1950406E-2,2.5748166E-1,-6.2010467E-2,8.1402905E-2,-6.568919E-2,7.592695E-2],"split_indices":[2,0,0,4,3,0,17,16,21,15,25,21,0,15,16,21,0,0,16,21,0,3,0,0,0,0,21,16,0,0,16,0,0,0,0,0,0,0,0,0,0,0,0,0,0,0,0,0,0,0,0],"split_type":[0,0,0,0,0,0,0,0,0,0,0,0,0,0,0,0,0,0,0,0,0,0,0,0,0,0,0,0,0,0,0,0,0,0,0,0,0,0,0,0,0,0,0,0,0,0,0,0,0,0,0],"sum_hessian":[9.585067E3,5.1064424E3,4.478625E3,4.9429336E3,1.6350906E2,4.3636367E3,5.7929694E2,7.079962E1,9.270944E1,3.954937E3,4.0869955E2,5.7199414E2,7.302799E0,9.972345E0,6.0827274E1,8.221967E1,1.0489776E1,3.8831062E3,7.183084E1,4.0761447E2,1.0850987E0,1.8299928E2,3.8899487E2,3.504026E0,3.7987733E0,6.3491006E0,3.6232452E0,4.4257095E1,1.6570177E1,6.787875E1,1.4340917E1,8.499611E0,1.9901649E0,9.650342E0,3.8734558E3,3.184364E0,6.864648E1,4.0051547E2,7.098983E0,1.8165045E2,1.3488314E0,2.854944E2,1.0350048E2,1.2519687E0,2.5468047E0,1.0112791E0,2.6119661E0,4.011498E1,4.1421175E0,3.1354775E0,1.120544E1],"tree_param":{"num_deleted":"0","num_feature":"36","num_nodes":"51","size_leaf_vector":"1"}},{"base_weights":[1.3698076E-3,-8.79298E-1,1.0219935E-1,-9.23228E-1,1.01559475E-1,-9.344282E-1,1.0315486E-1,-9.578045E-1,-8.046376E-1,-9.625677E-1,-6.4602256E-1,-8.223535E-1,-6.112126E-2,-9.678263E-2,-6.719711E-2,-7.6737665E-2,3.2974984E-2,-7.851235E-2,-9.8608024E-2,1.9498959E-1,-9.560944E-2],"categories":[],"categories_nodes":[],"categories_segments":[],"categories_sizes":[],"default_left":[0,0,0,0,0,0,0,0,0,0,0,0,0,0,0,0,0,0,0,0,0],"id":31,"left_children":[1,3,-1,5,-1,7,-1,9,11,13,15,17,19,-1,-1,-1,-1,-1,-1,-1,-1],"loss_changes":[7.854298E3,3.914126E2,0E0,1.0134839E2,0E0,1.30625E1,0E0,5.1083984E0,9.197998E0,5.1538086E0,7.4879627E0,3.405487E0,3.3217514E1,0E0,0E0,0E0,0E0,0E0,0E0,0E0,0E0],"parents":[2147483647,0,0,1,1,3,3,5,5,7,7,8,8,9,9,10,10,11,11,12,12],"right_children":[2,4,-1,6,-1,8,-1,10,12,14,16,18,20,-1,-1,-1,-1,-1,-1,-1,-1],"split_conditions":[1E0,1E0,1.0219935E-1,1E0,1.01559475E-1,2.6E1,1.0315486E-1,2E-1,7E0,3.7381494E0,2.2E1,2E0,8E0,-9.678263E-2,-6.719711E-2,-7.6737665E-2,3.2974984E-2,-7.851235E-2,-9.8608024E-2,1.9498959E-1,-9.560944E-2],"split_indices":[2,19,0,23,0,0,0,13,21,15,0,3,21,0,0,0,0,0,0,0,0],"split_type":[0,0,0,0,0,0,0,0,0,0,0,0,0,0,0,0,0,0,0,0,0],"sum_hessian":[8.736354E3,4.6897974E3,4.0465566E3,4.5840366E3,1.0576077E2,4.55844E3,2.5596346E1,3.8573262E3,7.01114E2,3.7972275E3,6.009858E1,6.846937E2,1.6420336E1,3.7274456E3,6.978187E1,5.3640976E1,6.4576054E0,5.625664E2,1.2212731E2,4.694041E0,1.17262945E1],"tree_param":{"num_deleted":"0","num_feature":"36","num_nodes":"21","size_leaf_vector":"1"}},{"base_weights":[-1.9037623E-4,-8.740263E-1,1.01980686E-1,-9.1544193E-1,1.0117171E-1,-9.2729574E-1,1.0227745E-1,-9.544091E-1,-7.650284E-1,7.0439406E-2,-9.553075E-1,-7.972486E-1,-4.301744E-1,-9.57297E-2,-3.987927E-2,-8.033847E-2,3.60117E-2,3.6760982E-2,-6.420227E-2],"categories":[],"categories_nodes":[],"categories_segments":[],"categories_sizes":[],"default_left":[0,0,0,0,0,0,0,0,0,0,0,0,0,0,0,0,0,0,0],"id":32,"left_children":[1,3,-1,5,-1,7,-1,9,11,-1,13,15,17,-1,-1,-1,-1,-1,-1],"loss_changes":[7.0852095E3,3.3529614E2,0E0,9.721167E1,0E0,1.7593994E1,0E0,5.984619E0,6.1447754E0,0E0,3.5634766E0,4.1765747E0,9.523703E0,0E0,0E0,0E0,0E0,0E0,0E0],"parents":[2147483647,0,0,1,1,3,3,5,5,7,7,8,8,10,10,11,11,12,12],"right_children":[2,4,-1,6,-1,8,-1,10,12,-1,14,16,18,-1,-1,-1,-1,-1,-1],"split_conditions":[1E0,1E0,1.01980686E-1,1E0,1.0117171E-1,1.5E1,1.0227745E-1,2E0,1E0,7.0439406E-2,3.875E0,7E0,2E0,-9.57297E-2,-3.987927E-2,-8.033847E-2,3.60117E-2,3.6760982E-2,-6.420227E-2],"split_indices":[2,19,0,23,0,20,0,21,12,0,15,21,12,0,0,0,0,0,0],"split_type":[0,0,0,0,0,0,0,0,0,0,0,0,0,0,0,0,0,0,0],"sum_hessian":[7.9472065E3,4.280353E3,3.6668533E3,4.1888696E3,9.1483406E1,4.1639253E3,2.4944296E1,3.5635984E3,6.0032684E2,1.5049978E0,3.5620935E3,5.463731E2,5.3953747E1,3.5486865E3,1.3407033E1,5.437959E2,2.5772402E0,1.1166684E1,4.2787064E1],"tree_param":{"num_deleted":"0","num_feature":"36","num_nodes":"19","size_leaf_vector":"1"}},{"base_weights":[-9.592864E-5,-8.644507E-1,1.0178325E-1,-9.0626836E-1,1.0088315E-1,-9.1785103E-1,1.01254724E-1,-9.469073E-1,-7.0980394E-1,-9.625217E-1,-7.5424707E-1,-6.4515465E-1,-8.6948097E-1,-9.635041E-2,6.832679E-2,-8.035147E-2,4.3949117E-3,-6.665402E-2,2.0122544E-1,-9.147638E-2,-5.166486E-2],"categories":[],"categories_nodes":[],"categories_segments":[],"categories_sizes":[],"default_left":[0,0,0,0,0,0,0,0,0,0,0,0,0,0,0,0,0,0,0,0,0],"id":33,"left_children":[1,3,-1,5,-1,7,-1,9,11,13,15,17,19,-1,-1,-1,-1,-1,-1,-1,-1],"loss_changes":[6.390825E3,3.0862524E2,0E0,8.633618E1,0E0,2.2421875E1,0E0,9.349365E0,4.313141E0,5.661377E0,1.0091049E1,2.06613E1,1.65551E0,0E0,0E0,0E0,0E0,0E0,0E0,0E0,0E0],"parents":[2147483647,0,0,1,1,3,3,5,5,7,7,8,8,9,9,10,10,11,11,12,12],"right_children":[2,4,-1,6,-1,8,-1,10,12,14,16,18,20,-1,-1,-1,-1,-1,-1,-1,-1],"split_conditions":[1E0,1E0,1.0178325E-1,1E0,1.0088315E-1,1E0,1.01254724E-1,2.8E1,3.9690015E0,1E0,1E0,3.8E1,3.5E1,-9.635041E-2,6.832679E-2,-8.035147E-2,4.3949117E-3,-6.665402E-2,2.0122544E-1,-9.147638E-2,-5.166486E-2],"split_indices":[2,32,0,23,0,4,0,0,16,18,31,0,0,0,0,0,0,0,0,0,0],"split_type":[0,0,0,0,0,0,0,0,0,0,0,0,0,0,0,0,0,0,0,0,0],"sum_hessian":[7.261529E3,3.9270764E3,3.3344524E3,3.8418306E3,8.5245766E1,3.8192976E3,2.2532982E1,3.3481392E3,4.711585E2,3.093432E3,2.5470717E2,3.3896167E2,1.3219685E2,3.092001E3,1.4311215E0,2.398934E2,1.481377E1,3.3699884E2,1.9628235E0,1.157489E2,1.6447956E1],"tree_param":{"num_deleted":"0","num_feature":"36","num_nodes":"21","size_leaf_vector":"1"}},{"base_weights":[3.7738483E-3,-8.521344E-1,1.01604775E-1,-8.945181E-1,1.00600295E-1,-9.056433E-1,1.002051E-1,-9.358688E-1,-6.9315296E-1,-9.5406425E-1,-7.195047E-1,-8.05427E-1,-4.8925033E-1,-9.612071E-2,-6.5151416E-2,-7.629119E-2,9.526858E-2,-8.186095E-2,1.0704134E-1,-2.9982898E-2,-9.225763E-2],"categories":[],"categories_nodes":[],"categories_segments":[],"categories_sizes":[],"default_left":[0,0,0,0,0,0,0,0,0,0,0,0,0,0,0,0,0,0,0,0,0],"id":34,"left_children":[1,3,-1,5,-1,7,-1,9,11,13,15,17,19,-1,-1,-1,-1,-1,-1,-1,-1],"loss_changes":[5.7429263E3,2.8375488E2,0E0,7.501001E1,0E0,2.1779541E1,0E0,1.1338135E1,9.649673E0,5.4555664E0,1.8219917E1,7.834488E0,1.2719978E1,0E0,0E0,0E0,0E0,0E0,0E0,0E0,0E0],"parents":[2147483647,0,0,1,1,3,3,5,5,7,7,8,8,9,9,10,10,11,11,12,12],"right_children":[2,4,-1,6,-1,8,-1,10,12,14,16,18,20,-1,-1,-1,-1,-1,-1,-1,-1],"split_conditions":[1E0,1E0,1.01604775E-1,1E0,1.00600295E-1,1E0,1.002051E-1,2.8E1,2.5E1,3.75E0,7E0,3E0,2E0,-9.612071E-2,-6.5151416E-2,-7.629119E-2,9.526858E-2,-8.186095E-2,1.0704134E-1,-2.9982898E-2,-9.225763E-2],"split_indices":[2,32,0,23,0,4,0,0,0,15,21,4,4,0,0,0,0,0,0,0,0],"split_type":[0,0,0,0,0,0,0,0,0,0,0,0,0,0,0,0,0,0,0,0,0],"sum_hessian":[6.62639E3,3.5905933E3,3.035797E3,3.5110261E3,7.956715E1,3.49107E3,1.995596E1,3.0533447E3,4.3772528E2,2.8133433E3,2.4000142E2,2.8038693E2,1.5733835E2,2.7463293E3,6.701414E1,2.3445903E2,5.5423846E0,2.7898993E2,1.3970088E0,1.1065797E2,4.6680393E1],"tree_param":{"num_deleted":"0","num_feature":"36","num_nodes":"21","size_leaf_vector":"1"}},{"base_weights":[1.0895618E-2,-8.241505E-1,1.0144287E-1,-8.6521953E-1,1.0029433E-1,-8.7613666E-1,9.9259965E-2,-9.133367E-1,-6.241465E-1,-9.3832994E-1,-6.8047327E-1,-8.933211E-1,-4.9297607E-1,-9.446975E-2,-3.891857E-2,-7.069667E-2,1.8865293E-1,-9.136429E-2,-6.290159E-2,-5.346657E-2,7.591194E-2],"categories":[],"categories_nodes":[],"categories_segments":[],"categories_sizes":[],"default_left":[0,0,0,0,0,0,0,0,0,0,0,0,0,0,0,0,0,0,0,0,0],"id":35,"left_children":[1,3,-1,5,-1,7,-1,9,11,13,15,17,19,-1,-1,-1,-1,-1,-1,-1,-1],"loss_changes":[5.048497E3,2.4761108E2,0E0,6.610791E1,0E0,2.9410889E1,0E0,1.55686035E1,1.4197128E1,8.416504E0,1.9937576E1,1.4826202E-1,1.5072334E1,0E0,0E0,0E0,0E0,0E0,0E0,0E0,0E0],"parents":[2147483647,0,0,1,1,3,3,5,5,7,7,8,8,9,9,10,10,11,11,12,12],"right_children":[2,4,-1,6,-1,8,-1,10,12,14,16,18,20,-1,-1,-1,-1,-1,-1,-1,-1],"split_conditions":[1E0,1E0,1.0144287E-1,1E0,1.0029433E-1,1E0,9.9259965E-2,1.6E1,3E0,2.173913E-1,7E0,4.1666668E-2,2.4E1,-9.446975E-2,-3.891857E-2,-7.069667E-2,1.8865293E-1,-9.136429E-2,-6.290159E-2,-5.346657E-2,7.591194E-2],"split_indices":[2,19,0,23,0,4,0,20,21,13,21,13,20,0,0,0,0,0,0,0,0],"split_type":[0,0,0,0,0,0,0,0,0,0,0,0,0,0,0,0,0,0,0,0,0],"sum_hessian":[6.022488E3,3.2872913E3,2.7351965E3,3.2155396E3,7.1751755E1,3.1972795E3,1.8259884E1,2.7837102E3,4.135694E2,2.5111577E3,2.7255237E2,1.335996E2,2.799698E2,2.4816616E3,2.949623E1,2.7048538E2,2.0670114E0,1.2177949E2,1.1820106E1,2.7150284E2,8.466949E0],"tree_param":{"num_deleted":"0","num_feature":"36","num_nodes":"21","size_leaf_vector":"1"}},{"base_weights":[1.4353981E-3,-8.311883E-1,1.01296484E-1,-8.7227917E-1,1.0000899E-1,-8.828797E-1,9.824102E-2,-9.182522E-1,-6.487557E-1,-9.4094133E-1,-7.3291874E-1,-6.644975E-1,4.5119032E-1,-9.484196E-2,-5.540335E-2,-7.87522E-2,2.914665E-3,-7.06733E-2,-2.55498E-2,1.5498911E-1,-7.429196E-2],"categories":[],"categories_nodes":[],"categories_segments":[],"categories_sizes":[],"default_left":[0,0,0,0,0,0,0,0,0,0,0,0,0,0,0,0,0,0,0,0,0],"id":36,"left_children":[1,3,-1,5,-1,7,-1,9,11,13,15,17,19,-1,-1,-1,-1,-1,-1,-1,-1],"loss_changes":[4.643803E3,2.2844897E2,0E0,5.9033203E1,0E0,2.377002E1,0E0,1.0048584E1,7.0454865E0,6.047119E0,1.1800903E1,6.4612274E0,9.144476E0,0E0,0E0,0E0,0E0,0E0,0E0,0E0,0E0],"parents":[2147483647,0,0,1,1,3,3,5,5,7,7,8,8,9,9,10,10,11,11,12,12],"right_children":[2,4,-1,6,-1,8,-1,10,12,14,16,18,20,-1,-1,-1,-1,-1,-1,-1,-1],"split_conditions":[1E0,1E0,1.01296484E-1,1E0,1.0000899E-1,1E0,9.824102E-2,2.7E1,2E-1,3.75E0,2.8037382E-2,3.1E1,2.236842E-1,-9.484196E-2,-5.540335E-2,-7.87522E-2,2.914665E-3,-7.06733E-2,-2.55498E-2,1.5498911E-1,-7.429196E-2],"split_indices":[2,19,0,23,0,4,0,0,13,15,13,0,13,0,0,0,0,0,0,0,0],"split_type":[0,0,0,0,0,0,0,0,0,0,0,0,0,0,0,0,0,0,0,0,0],"sum_hessian":[5.511743E3,3.023323E3,2.48842E3,2.9574856E3,6.5837364E1,2.9411992E3,1.6286509E1,2.5526162E3,3.8858298E2,2.2705688E3,2.8204736E2,3.8349057E2,5.0923924E0,2.2260913E3,4.447755E1,2.6315823E2,1.8889135E1,3.4693613E2,3.6554447E1,2.4969769E0,2.5954156E0],"tree_param":{"num_deleted":"0","num_feature":"36","num_nodes":"21","size_leaf_vector":"1"}},{"base_weights":[-2.1636677E-3,-8.25235E-1,1.0116345E-1,-8.6395353E-1,9.9633776E-2,-8.752238E-1,9.776091E-2,-9.1080624E-1,-6.460266E-1,-9.357725E-1,-7.1216357E-1,-7.001784E-1,-1.5991497E-1,-9.3741745E-2,7.321911E-2,-7.349109E-2,1.6619233E-2,-8.507827E-2,-6.292518E-2,5.965227E-2,-6.459439E-2],"categories":[],"categories_nodes":[],"categories_segments":[],"categories_sizes":[],"default_left":[0,0,0,0,0,0,0,0,0,0,0,0,0,0,0,0,0,0,0,0,0],"id":37,"left_children":[1,3,-1,5,-1,7,-1,9,11,13,15,17,19,-1,-1,-1,-1,-1,-1,-1,-1],"loss_changes":[4.195856E3,1.9659631E2,0E0,5.7268066E1,0E0,2.1447754E1,0E0,1.0921143E1,9.537109E0,6.3725586E0,5.418045E0,2.9844818E0,1.4369432E1,0E0,0E0,0E0,0E0,0E0,0E0,0E0,0E0],"parents":[2147483647,0,0,1,1,3,3,5,5,7,7,8,8,9,9,10,10,11,11,12,12],"right_children":[2,4,-1,6,-1,8,-1,10,12,14,16,18,20,-1,-1,-1,-1,-1,-1,-1,-1],"split_conditions":[1E0,1E0,1.0116345E-1,1E0,9.9633776E-2,1E0,9.776091E-2,2.7E1,3.1E1,1E0,7E0,3E0,2E0,-9.3741745E-2,7.321911E-2,-7.349109E-2,1.6619233E-2,-8.507827E-2,-6.292518E-2,5.965227E-2,-6.459439E-2],"split_indices":[2,19,0,23,0,4,0,0,0,18,21,21,4,0,0,0,0,0,0,0,0],"split_type":[0,0,0,0,0,0,0,0,0,0,0,0,0,0,0,0,0,0,0,0,0],"sum_hessian":[5.02642E3,2.7742656E3,2.2521543E3,2.717039E3,5.7226418E1,2.7010337E3,1.6005453E1,2.3354807E3,3.65553E2,2.0714243E3,2.6405643E2,3.285166E2,3.7036423E1,2.069821E3,1.6032658E0,2.575498E2,6.5066094E0,1.01659424E2,2.2685716E2,1.4399001E1,2.263742E1],"tree_param":{"num_deleted":"0","num_feature":"36","num_nodes":"21","size_leaf_vector":"1"}},{"base_weights":[5.051115E-3,-8.0049324E-1,1.0104259E-1,-8.390699E-1,9.937713E-2,-8.493191E-1,9.639991E-2,-8.970005E-1,-5.4999185E-1,-9.16521E-1,-6.815416E-1,-8.7636316E-1,-4.2779E-1,-9.2265666E-2,-4.1308206E-2,-7.373988E-2,8.342388E-2,-9.182622E-2,1.3258116E-1,-2.337358E-2,-7.26629E-2],"categories":[],"categories_nodes":[],"categories_segments":[],"categories_sizes":[],"default_left":[0,0,0,0,0,0,0,0,0,0,0,0,0,0,0,0,0,0,0,0,0],"id":38,"left_children":[1,3,-1,5,-1,7,-1,9,11,13,15,17,19,-1,-1,-1,-1,-1,-1,-1,-1],"loss_changes":[3.7165508E3,1.7717883E2,0E0,4.6919678E1,0E0,3.491736E1,0E0,8.369873E0,1.3325027E1,5.6671143E0,1.5987244E1,9.763794E0,1.4436771E1,0E0,0E0,0E0,0E0,0E0,0E0,0E0,0E0],"parents":[2147483647,0,0,1,1,3,3,5,5,7,7,8,8,9,9,10,10,11,11,12,12],"right_children":[2,4,-1,6,-1,8,-1,10,12,14,16,18,20,-1,-1,-1,-1,-1,-1,-1,-1],"split_conditions":[1E0,1E0,1.0104259E-1,1E0,9.937713E-2,1E0,9.639991E-2,2.8E1,3.7219281E0,2.173913E-1,7E0,3E0,3.9690015E0,-9.2265666E-2,-4.1308206E-2,-7.373988E-2,8.342388E-2,-9.182622E-2,1.3258116E-1,-2.337358E-2,-7.26629E-2],"split_indices":[2,32,0,23,0,4,0,0,16,13,21,4,16,0,0,0,0,0,0,0,0],"split_type":[0,0,0,0,0,0,0,0,0,0,0,0,0,0,0,0,0,0,0,0,0],"sum_hessian":[4.5870493E3,2.5467224E3,2.0403267E3,2.4936416E3,5.3080894E1,2.480073E3,1.3568478E1,2.1375715E3,3.4250162E2,1.9570127E3,1.8055876E2,9.162425E1,2.5087737E2,1.9326261E3,2.4386639E1,1.7463683E2,5.921925E0,9.048567E1,1.1385798E0,1.5318636E2,9.769101E1],"tree_param":{"num_deleted":"0","num_feature":"36","num_nodes":"21","size_leaf_vector":"1"}},{"base_weights":[2.0024346E-4,-7.948821E-1,1.009324E-1,-8.32391E-1,9.905245E-2,-8.426632E-1,9.558763E-2,-8.827461E-1,-6.48213E-1,-9.1039217E-1,-6.754326E-1,-9.976981E-2,-5.875222E-1,-9.208854E-2,-2.8149435E-2,-6.9131166E-2,1.21071175E-1,-4.9227845E-2,-9.439097E-2],"categories":[],"categories_nodes":[],"categories_segments":[],"categories_sizes":[],"default_left":[0,0,0,0,0,0,0,0,0,0,0,0,0,0,0,0,0,0,0],"id":39,"left_children":[1,3,-1,5,-1,7,-1,9,11,13,15,-1,17,-1,-1,-1,-1,-1,-1],"loss_changes":[3.358345E3,1.5760742E2,0E0,4.293628E1,0E0,1.7205688E1,0E0,1.0208008E1,7.7620544E0,1.0717163E1,7.6076508E0,0E0,1.1000954E1,0E0,0E0,0E0,0E0,0E0,0E0],"parents":[2147483647,0,0,1,1,3,3,5,5,7,7,8,8,9,9,10,10,12,12],"right_children":[2,4,-1,6,-1,8,-1,10,12,14,16,-1,18,-1,-1,-1,-1,-1,-1],"split_conditions":[1E0,1E0,1.009324E-1,1E0,9.905245E-2,2.6E1,9.558763E-2,1E0,3E0,3.7381494E0,3.9219282E0,-9.976981E-2,2E0,-9.208854E-2,-2.8149435E-2,-6.9131166E-2,1.21071175E-1,-4.9227845E-2,-9.439097E-2],"split_indices":[2,19,0,23,0,0,0,4,21,15,15,0,3,0,0,0,0,0,0],"split_type":[0,0,0,0,0,0,0,0,0,0,0,0,0,0,0,0,0,0,0],"sum_hessian":[4.183707E3,2.3401387E3,1.8435685E3,2.29251E3,4.7628696E1,2.2799421E3,1.25677395E1,1.8873544E3,3.9258783E2,1.6622898E3,2.2506459E2,5.5804024E1,3.3678378E2,1.6345527E3,2.7736954E1,2.2381383E2,1.250759E0,2.6763913E2,6.914467E1],"tree_param":{"num_deleted":"0","num_feature":"36","num_nodes":"19","size_leaf_vector":"1"}},{"base_weights":[-4.1066706E-3,-7.891276E-1,1.0083207E-1,-8.257314E-1,9.8732315E-2,-8.7083143E-1,-5.57214E-1,-9.0462923E-1,-6.20518E-1,-9.1340333E-1,-4.8269552E-1,-9.156932E-1,-9.686258E-2,-6.669683E-1,6.9437677E-1,-9.844216E-2,-5.587802E-1,-3.2558382E-1,-7.6648045E-1,-4.214015E-3,-9.179958E-2,1.0080713E-1,-5.0545406E-2,-7.022082E-2,-1.6970927E-2,2.32688E-1,-8.170686E-2,2.5104288E-2,-8.888191E-2,-3.893883E-2,2.8122926E-1,-8.071532E-2,1.0057868E-1],"categories":[],"categories_nodes":[],"categories_segments":[],"categories_sizes":[],"default_left":[0,0,0,0,0,0,0,0,0,0,0,0,0,0,0,0,0,0,0,0,0,0,0,0,0,0,0,0,0,0,0,0,0],"id":40,"left_children":[1,3,-1,5,-1,7,9,11,13,15,17,19,21,23,25,-1,27,29,31,-1,-1,-1,-1,-1,-1,-1,-1,-1,-1,-1,-1,-1,-1],"loss_changes":[3.0444187E3,1.411117E2,0E0,2.5122314E1,0E0,1.4740356E1,7.704071E0,1.4133545E1,1.3799126E1,7.588005E-1,1.1159634E1,3.1185303E0,1.0721971E1,3.5853806E0,2.1492956E1,0E0,3.1588967E0,3.441903E1,7.3315506E0,0E0,0E0,0E0,0E0,0E0,0E0,0E0,0E0,0E0,0E0,0E0,0E0,0E0,0E0],"parents":[2147483647,0,0,1,1,3,3,5,5,6,6,7,7,8,8,9,9,10,10,11,11,12,12,13,13,14,14,16,16,17,17,18,18],"right_children":[2,4,-1,6,-1,8,10,12,14,16,18,20,22,24,26,-1,28,30,32,-1,-1,-1,-1,-1,-1,-1,-1,-1,-1,-1,-1,-1,-1],"split_conditions":[1E0,1E0,1.0083207E-1,1E0,9.8732315E-2,2.7E1,3.64125E0,2.173913E-1,7E0,2.2E1,3.952303E0,1.3E1,2.3684211E-1,2.8037382E-2,8E0,-9.844216E-2,1.2E1,3.9483943E0,2.2222222E-1,-4.214015E-3,-9.179958E-2,1.0080713E-1,-5.0545406E-2,-7.022082E-2,-1.6970927E-2,2.32688E-1,-8.170686E-2,2.5104288E-2,-8.888191E-2,-3.893883E-2,2.8122926E-1,-8.071532E-2,1.0057868E-1],"split_indices":[2,19,0,4,0,0,16,13,21,0,16,0,13,13,21,0,20,16,13,0,0,0,0,0,0,0,0,0,0,0,0,0,0],"split_type":[0,0,0,0,0,0,0,0,0,0,0,0,0,0,0,0,0,0,0,0,0,0,0,0,0,0,0,0,0,0,0,0,0],"sum_hessian":[3.8285327E3,2.1565764E3,1.6719563E3,2.1135615E3,4.301483E1,1.8076986E3,3.0586295E2,1.590352E3,2.1734654E2,5.0970894E1,2.5489206E2,1.5687314E3,2.1620583E1,2.1040643E2,6.940108E0,4.0986755E1,9.984137E0,1.6544443E2,8.9447624E1,4.1747427E0,1.5645568E3,5.4406133E0,1.6179968E1,1.9609721E2,1.4309223E1,3.0770729E0,3.863035E0,2.9601388E0,7.023998E0,1.6300583E2,2.4385989E0,8.797324E1,1.4743811E0],"tree_param":{"num_deleted":"0","num_feature":"36","num_nodes":"33","size_leaf_vector":"1"}},{"base_weights":[1.1595354E-2,-7.4480766E-1,1.0074031E-1,-7.800049E-1,9.842318E-2,-8.4182507E-1,-4.2689922E-1,-8.793574E-1,-5.7214475E-1,-8.183759E-1,-2.5271225E-1,-8.9113027E-1,-1.03524856E-1,-4.8321685E-1,-8.910245E-1,-6.6103446E-1,-9.835353E-2,-1.418356E-1,-8.5833305E-1,-9.029996E-2,-3.368238E-2,7.748177E-2,-4.8078522E-2,-5.5876028E-2,5.758403E-2,-9.7599134E-2,-3.8072165E-2,-8.167952E-2,2.2425306E-1,-2.0972684E-2,1.4687072E-1,-9.792074E-2,-1.9709119E-3],"categories":[],"categories_nodes":[],"categories_segments":[],"categories_sizes":[],"default_left":[0,0,0,0,0,0,0,0,0,0,0,0,0,0,0,0,0,0,0,0,0,0,0,0,0,0,0,0,0,0,0,0,0],"id":41,"left_children":[1,3,-1,5,-1,7,9,11,13,15,17,19,21,23,25,27,-1,29,31,-1,-1,-1,-1,-1,-1,-1,-1,-1,-1,-1,-1,-1,-1],"loss_changes":[2.6459192E3,1.2226111E2,0E0,4.236194E1,0E0,1.6344238E1,1.9814976E1,1.3236328E1,5.417053E0,1.6877937E0,1.3620297E1,9.152222E0,7.9753456E0,1.3396904E1,1.5267677E0,2.4048649E1,0E0,1.9352976E1,3.170868E0,0E0,0E0,0E0,0E0,0E0,0E0,0E0,0E0,0E0,0E0,0E0,0E0,0E0,0E0],"parents":[2147483647,0,0,1,1,3,3,5,5,6,6,7,7,8,8,9,9,10,10,11,11,12,12,13,13,14,14,15,15,17,17,18,18],"right_children":[2,4,-1,6,-1,8,10,12,14,16,18,20,22,24,26,28,-1,30,32,-1,-1,-1,-1,-1,-1,-1,-1,-1,-1,-1,-1,-1,-1],"split_conditions":[1E0,1E0,1.0074031E-1,1E0,9.842318E-2,2.7E1,3E0,2.173913E-1,2E0,3.8282375E0,4.2857144E-2,3.75E0,2.3684211E-1,4E0,3.3E1,3.5724313E0,-9.835353E-2,3.5E1,2E-1,-9.029996E-2,-3.368238E-2,7.748177E-2,-4.8078522E-2,-5.5876028E-2,5.758403E-2,-9.7599134E-2,-3.8072165E-2,-8.167952E-2,2.2425306E-1,-2.0972684E-2,1.4687072E-1,-9.792074E-2,-1.9709119E-3],"split_indices":[2,19,0,4,0,0,21,13,3,16,13,15,13,21,0,15,0,0,13,0,0,0,0,0,0,0,0,0,0,0,0,0,0],"split_type":[0,0,0,0,0,0,0,0,0,0,0,0,0,0,0,0,0,0,0,0,0,0,0,0,0,0,0,0,0,0,0,0,0],"sum_hessian":[3.5107583E3,1.9953601E3,1.5153983E3,1.9560897E3,3.927034E1,1.6634725E3,2.926172E2,1.4582607E3,2.0521182E2,8.89679E1,2.0364929E2,1.4363167E3,2.1944038E1,1.6242949E2,4.2782326E1,4.812415E1,4.0843754E1,1.7317815E2,3.0471146E1,1.4055901E3,3.0726608E1,6.2767124E0,1.5667326E1,1.5205563E2,1.0373857E1,3.5893402E1,6.888923E0,4.6356087E1,1.7680641E0,1.6700783E2,6.170314E0,2.648598E1,3.985167E0],"tree_param":{"num_deleted":"0","num_feature":"36","num_nodes":"33","size_leaf_vector":"1"}},{"base_weights":[1.4515712E-3,-7.4604225E-1,1.0065625E-1,-7.8121465E-1,9.8141626E-2,-7.947337E-1,9.618389E-2,-8.569239E-1,-4.5249745E-1,-8.9741606E-1,-5.73256E-1,-7.577616E-1,-3.2233325E-1,-9.090222E-2,-4.0903445E-2,-6.472086E-2,2.7937222E-2,-6.4225964E-2,-9.750166E-2,-3.5186063E-2,1.10922925E-1],"categories":[],"categories_nodes":[],"categories_segments":[],"categories_sizes":[],"default_left":[0,0,0,0,0,0,0,0,0,0,0,0,0,0,0,0,0,0,0,0,0],"id":42,"left_children":[1,3,-1,5,-1,7,-1,9,11,13,15,17,19,-1,-1,-1,-1,-1,-1,-1,-1],"loss_changes":[2.423199E3,1.13151245E2,0E0,4.349475E1,0E0,3.7921387E1,0E0,1.6968018E1,1.0837681E1,7.1677246E0,1.2343357E1,1.4473076E0,8.728844E0,0E0,0E0,0E0,0E0,0E0,0E0,0E0,0E0],"parents":[2147483647,0,0,1,1,3,3,5,5,7,7,8,8,9,9,10,10,11,11,12,12],"right_children":[2,4,-1,6,-1,8,-1,10,12,14,16,18,20,-1,-1,-1,-1,-1,-1,-1,-1],"split_conditions":[1E0,1E0,1.0065625E-1,1E0,9.8141626E-2,1E0,9.618389E-2,2.7E1,3E0,4E0,1E0,3.5724695E0,1E0,-9.090222E-2,-4.0903445E-2,-6.472086E-2,2.7937222E-2,-6.4225964E-2,-9.750166E-2,-3.5186063E-2,1.10922925E-1],"split_indices":[2,19,0,23,0,4,0,0,21,12,31,15,17,0,0,0,0,0,0,0,0],"split_type":[0,0,0,0,0,0,0,0,0,0,0,0,0,0,0,0,0,0,0,0,0],"sum_hessian":[3.2232808E3,1.8486848E3,1.374596E3,1.8123322E3,3.635269E1,1.7989237E3,1.3408349E1,1.5210239E3,2.7789975E2,1.3291332E3,1.9189085E2,8.163227E1,1.9626749E2,1.297439E3,3.1694178E1,1.7679729E2,1.5093565E1,5.5880222E1,2.5752047E1,1.9304007E2,3.227427E0],"tree_param":{"num_deleted":"0","num_feature":"36","num_nodes":"21","size_leaf_vector":"1"}},{"base_weights":[1.0378906E-2,-7.134682E-1,1.0057876E-1,-7.466683E-1,9.774183E-2,-8.234978E-1,-3.839114E-1,-8.361714E-1,9.325661E-2,-4.7937766E-1,-1.3806352E-1,-8.827705E-1,-5.2944297E-1,-5.554244E-1,3.875636E-1,9.9994653E-1,-4.4916332E-1,-8.9424424E-2,-2.1726852E-2,-5.4668482E-2,8.0432944E-2,-5.7235356E-2,6.926872E-2,2.5346354E-1,-1.5482048E-2,1.2453443E-1,-6.762385E-2,-9.7640865E-2,-1.3521564E-2],"categories":[],"categories_nodes":[],"categories_segments":[],"categories_sizes":[],"default_left":[0,0,0,0,0,0,0,0,0,0,0,0,0,0,0,0,0,0,0,0,0,0,0,0,0,0,0,0,0],"id":43,"left_children":[1,3,-1,5,-1,7,9,11,-1,13,15,17,19,21,23,25,27,-1,-1,-1,-1,-1,-1,-1,-1,-1,-1,-1,-1],"loss_changes":[2.1305352E3,9.683722E1,0E0,4.6494873E1,0E0,3.1607727E1,6.867565E0,1.9196777E1,0E0,1.4217842E1,3.0200922E1,8.914124E0,4.6698E0,4.5309563E0,2.1024786E1,8.39057E0,1.0906201E1,0E0,0E0,0E0,0E0,0E0,0E0,0E0,0E0,0E0,0E0,0E0,0E0],"parents":[2147483647,0,0,1,1,3,3,5,5,6,6,7,7,9,9,10,10,11,11,12,12,13,13,14,14,15,15,16,16],"right_children":[2,4,-1,6,-1,8,10,12,-1,14,16,18,20,22,24,26,28,-1,-1,-1,-1,-1,-1,-1,-1,-1,-1,-1,-1],"split_conditions":[1E0,1E0,1.0057876E-1,1.5E1,9.774183E-2,1E0,1E0,1E0,9.325661E-2,2.8037382E-2,1.6E1,2.2222222E-1,3E0,1E0,3.5714287E-2,2E0,3.640224E0,-8.9424424E-2,-2.1726852E-2,-5.4668482E-2,8.0432944E-2,-5.7235356E-2,6.926872E-2,2.5346354E-1,-1.5482048E-2,1.2453443E-1,-6.762385E-2,-9.7640865E-2,-1.3521564E-2],"split_indices":[2,19,0,20,0,23,4,4,0,13,20,13,4,23,13,4,15,0,0,0,0,0,0,0,0,0,0,0,0],"split_type":[0,0,0,0,0,0,0,0,0,0,0,0,0,0,0,0,0,0,0,0,0,0,0,0,0,0,0,0,0],"sum_hessian":[2.9549292E3,1.7109987E3,1.2439307E3,1.6785983E3,3.2400383E1,1.3841702E3,2.9442813E2,1.3747722E3,9.397961E0,2.113918E2,8.303634E1,1.1918281E3,1.8294409E2,1.9467458E2,1.6717226E1,1.7351164E1,6.568517E1,1.1712904E3,2.0537685E1,1.8119194E2,1.7521615E0,1.9260356E2,2.071011E0,2.6306083E0,1.40866165E1,1.5359527E1,1.9916372E0,2.372731E1,4.1957867E1],"tree_param":{"num_deleted":"0","num_feature":"36","num_nodes":"29","size_leaf_vector":"1"}},{"base_weights":[1.0547669E-3,-7.0963955E-1,1.0050702E-1,-7.424775E-1,9.742128E-2,-8.112754E-1,-3.9352408E-1,-8.2432944E-1,9.272118E-2,-7.765192E-1,-2.3955631E-1,-8.7378114E-1,-5.0101566E-1,-8.1289075E-2,-3.5589594E-1,-1.3281004E-1,-8.366728E-1,8.024096E-2,-8.772784E-2,-5.50955E-2,6.875948E-2,1.3414522E-1,-8.562521E-2,-5.541563E-2,9.96571E-4,-9.7589284E-2,6.1786067E-2],"categories":[],"categories_nodes":[],"categories_segments":[],"categories_sizes":[],"default_left":[0,0,0,0,0,0,0,0,0,0,0,0,0,0,0,0,0,0,0,0,0,0,0,0,0,0,0],"id":44,"left_children":[1,3,-1,5,-1,7,9,11,-1,13,15,17,19,-1,21,23,25,-1,-1,-1,-1,-1,-1,-1,-1,-1,-1],"loss_changes":[1.9354132E3,8.854065E1,0E0,3.7093018E1,0E0,3.0284607E1,1.506242E1,2.0213257E1,0E0,8.3821106E-1,1.1737152E1,7.2630005E0,1.0688965E1,0E0,7.640875E0,9.563575E0,6.2734127E0,0E0,0E0,0E0,0E0,0E0,0E0,0E0,0E0,0E0,0E0],"parents":[2147483647,0,0,1,1,3,3,5,5,6,6,7,7,9,9,10,10,11,11,12,12,14,14,15,15,16,16],"right_children":[2,4,-1,6,-1,8,10,12,-1,14,16,18,20,-1,22,24,26,-1,-1,-1,-1,-1,-1,-1,-1,-1,-1],"split_conditions":[3E0,1E0,1.0050702E-1,1E0,9.742128E-2,1E0,3E0,2.7E1,9.272118E-2,4.1666668E-2,4.2857144E-2,2E0,7E0,-8.1289075E-2,4.7058824E-2,1E1,2.2222222E-1,8.024096E-2,-8.772784E-2,-5.50955E-2,6.875948E-2,1.3414522E-1,-8.562521E-2,-5.541563E-2,9.96571E-4,-9.7589284E-2,6.1786067E-2],"split_indices":[6,19,0,4,0,23,21,0,0,13,13,21,21,0,13,20,13,0,0,0,0,0,0,0,0,0,0],"split_type":[0,0,0,0,0,0,0,0,0,0,0,0,0,0,0,0,0,0,0,0,0,0,0,0,0,0,0],"sum_hessian":[2.7103801E3,1.5871829E3,1.1231974E3,1.5573706E3,2.981228E1,1.2997861E3,2.5758444E2,1.290621E3,9.1652E0,7.2699905E1,1.8488454E2,1.1179281E3,1.7269281E2,6.6055466E1,6.6444345E0,1.5788239E2,2.7002151E1,1.8519386E0,1.1160762E3,1.6624454E2,6.4482765E0,1.1300372E0,5.514397E0,3.92298E1,1.1865258E2,2.4943739E1,2.0584123E0],"tree_param":{"num_deleted":"0","num_feature":"36","num_nodes":"27","size_leaf_vector":"1"}},{"base_weights":[2.6367692E-4,-6.9322985E-1,1.0044074E-1,-7.250168E-1,9.704197E-2,-7.987755E-1,-3.6760652E-1,-8.1178683E-1,9.178846E-2,-5.9827656E-1,-1.4026389E-1,-8.6144584E-1,-4.9752602E-1,-6.2663484E-1,1.2144523E-1,2.3221983E-1,-4.5768377E-1,-8.7794386E-2,-1.4965777E-2,-5.488074E-2,6.0676258E-2,-2.7006114E-2,-7.906718E-2,1.2037003E-3,1.6336025E-1,-6.478302E-2,1.0657525E-3],"categories":[],"categories_nodes":[],"categories_segments":[],"categories_sizes":[],"default_left":[0,0,0,0,0,0,0,0,0,0,0,0,0,0,0,0,0,0,0,0,0,0,0,0,0,0,0],"id":45,"left_children":[1,3,-1,5,-1,7,9,11,-1,13,15,17,19,21,-1,23,25,-1,-1,-1,-1,-1,-1,-1,-1,-1,-1],"loss_changes":[1.7360089E3,7.868201E1,0E0,3.786548E1,0E0,2.752649E1,1.2998623E1,1.8150696E1,0E0,7.1108284E0,1.5115809E1,1.1925415E1,9.666798E0,6.9387894E0,0E0,1.8207388E1,6.140604E0,0E0,0E0,0E0,0E0,0E0,0E0,0E0,0E0,0E0,0E0],"parents":[2147483647,0,0,1,1,3,3,5,5,6,6,7,7,9,9,10,10,11,11,12,12,13,13,15,15,16,16],"right_children":[2,4,-1,6,-1,8,10,12,-1,14,16,18,20,22,-1,24,26,-1,-1,-1,-1,-1,-1,-1,-1,-1,-1],"split_conditions":[1E0,1E0,1.0044074E-1,1E0,9.704197E-2,1E0,3.5E0,2.7E1,9.178846E-2,1E0,3.9690015E0,3.75E0,7E0,3.189898E0,1.2144523E-1,3.1E1,4.1261067E0,-8.7794386E-2,-1.4965777E-2,-5.488074E-2,6.0676258E-2,-2.7006114E-2,-7.906718E-2,1.2037003E-3,1.6336025E-1,-6.478302E-2,1.0657525E-3],"split_indices":[2,19,0,4,0,23,15,0,0,17,16,15,21,15,0,0,16,0,0,0,0,0,0,0,0,0,0],"split_type":[0,0,0,0,0,0,0,0,0,0,0,0,0,0,0,0,0,0,0,0,0,0,0,0,0,0,0],"sum_hessian":[2.4909504E3,1.4735676E3,1.0173829E3,1.446494E3,2.7073566E1,1.1980231E3,2.4847093E2,1.1895342E3,8.488895E0,1.2252303E2,1.259479E2,1.0257118E3,1.6382248E2,1.21280045E2,1.2429887E0,5.807126E1,6.787664E1,1.0022479E3,2.3463818E1,1.5703314E2,6.78934E0,3.9047417E1,8.223263E1,5.1057743E1,7.013515E0,4.8003853E1,1.987279E1],"tree_param":{"num_deleted":"0","num_feature":"36","num_nodes":"27","size_leaf_vector":"1"}},{"base_weights":[8.335365E-3,-6.6320616E-1,1.0037931E-1,-6.9436693E-1,9.6723974E-2,-7.69729E-1,-3.448295E-1,-8.3410585E-1,-3.8320506E-1,-3.6850777E-1,8.692969E-1,-8.5313517E-1,-4.344574E-1,-4.840833E-1,6.012715E-1,-3.9086226E-1,6.879469E-1,-6.582264E-2,1.9760604E0,3.6325723E-2,-8.571219E-2,2.1973109E-1,-6.7803614E-2,-5.2142687E-2,3.277692E-2,1.6270512E-1,-4.233576E-2,-3.167965E-2,-9.7245246E-2,1.8536155E-1,-6.9688514E-2,3.6003816E-1,-5.350557E-2],"categories":[],"categories_nodes":[],"categories_segments":[],"categories_sizes":[],"default_left":[0,0,0,0,0,0,0,0,0,0,0,0,0,0,0,0,0,0,0,0,0,0,0,0,0,0,0,0,0,0,0,0,0],"id":46,"left_children":[1,3,-1,5,-1,7,9,11,13,15,17,19,21,23,25,27,29,-1,31,-1,-1,-1,-1,-1,-1,-1,-1,-1,-1,-1,-1,-1,-1],"loss_changes":[1.5353644E3,7.0353455E1,0E0,3.520111E1,0E0,2.722052E1,7.237612E0,6.838196E0,1.616801E1,5.85923E0,9.585466E0,4.694214E0,3.0414352E1,4.5840263E0,1.6775068E1,9.704758E0,9.794605E0,0E0,1.4536061E1,0E0,0E0,0E0,0E0,0E0,0E0,0E0,0E0,0E0,0E0,0E0,0E0,0E0,0E0],"parents":[2147483647,0,0,1,1,3,3,5,5,6,6,7,7,8,8,9,9,10,10,11,11,12,12,13,13,14,14,15,15,16,16,18,18],"right_children":[2,4,-1,6,-1,8,10,12,14,16,18,20,22,24,26,28,30,-1,32,-1,-1,-1,-1,-1,-1,-1,-1,-1,-1,-1,-1,-1,-1],"split_conditions":[3E0,1E0,1.0037931E-1,1E0,9.6723974E-2,2.7E1,1E0,3.6818807E0,2.8037382E-2,2E-1,3.9483943E0,1.3E1,3.884155E0,7E0,7.058824E-2,4.2857144E-2,2.236842E-1,-6.582264E-2,4.061482E0,3.6325723E-2,-8.571219E-2,2.1973109E-1,-6.7803614E-2,-5.2142687E-2,3.277692E-2,1.6270512E-1,-4.233576E-2,-3.167965E-2,-9.7245246E-2,1.8536155E-1,-6.9688514E-2,3.6003816E-1,-5.350557E-2],"split_indices":[6,19,0,4,0,0,17,15,13,13,16,0,16,21,13,13,13,0,16,0,0,0,0,0,0,0,0,0,0,0,0,0,0],"split_type":[0,0,0,0,0,0,0,0,0,0,0,0,0,0,0,0,0,0,0,0,0,0,0,0,0,0,0,0,0,0,0,0,0],"sum_hessian":[2.294765E3,1.3705308E3,9.2423413E2,1.345392E3,2.5138731E1,1.1057782E3,2.3961374E2,9.4690936E2,1.5886887E2,2.3571326E2,3.9004717E0,9.027884E2,4.4121017E1,1.4456384E2,1.4305018E1,2.314459E2,4.2673507E0,1.8090044E0,2.0914674E0,2.6547916E0,9.0013354E2,3.0581374E0,4.1062878E1,1.3854863E2,6.015218E0,6.8546896E0,7.450329E0,2.0667097E2,2.4774937E1,2.1332207E0,2.13413E0,1.0065808E0,1.0848866E0],"tree_param":{"num_deleted":"0","num_feature":"36","num_nodes":"33","size_leaf_vector":"1"}},{"base_weights":[1.3421006E-2,-6.335681E-1,1.0032127E-1,-6.6286194E-1,9.623864E-2,-7.3941046E-1,-3.208416E-1,-7.53932E-1,9.1603465E-2,-4.6794432E-1,-1.01396576E-1,-8.101964E-1,-4.2739445E-1,-4.9262038E-1,1.3627023E-1,4.9326476E-1,-4.4945976E-1,-8.304217E-2,2.3671782E-2,-5.0570577E-2,2.5935987E-2,-3.4176808E-2,-8.75135E-2,-4.436118E-3,9.8394305E-2,-8.5532025E-2,5.5993316E-3],"categories":[],"categories_nodes":[],"categories_segments":[],"categories_sizes":[],"default_left":[0,0,0,0,0,0,0,0,0,0,0,0,0,0,0,0,0,0,0,0,0,0,0,0,0,0,0],"id":47,"left_children":[1,3,-1,5,-1,7,9,11,-1,13,15,17,19,21,-1,23,25,-1,-1,-1,-1,-1,-1,-1,-1,-1,-1],"loss_changes":[1.3554755E3,6.0479736E1,0E0,3.2685913E1,0E0,2.5373962E1,7.433449E0,1.8364014E1,0E0,6.926134E0,1.9735683E1,1.8567139E1,8.29508E0,7.626812E0,0E0,9.352079E0,1.2355249E1,0E0,0E0,0E0,0E0,0E0,0E0,0E0,0E0,0E0,0E0],"parents":[2147483647,0,0,1,1,3,3,5,5,6,6,7,7,9,9,10,10,11,11,12,12,13,13,15,15,16,16],"right_children":[2,4,-1,6,-1,8,10,12,-1,14,16,18,20,22,-1,24,26,-1,-1,-1,-1,-1,-1,-1,-1,-1,-1],"split_conditions":[1E0,1E0,1.0032127E-1,1E0,9.623864E-2,1E0,2.5E1,2.7E1,9.1603465E-2,3E0,2.7E1,2.173913E-1,2.8037382E-2,2.3E1,1.3627023E-1,2.6E1,3.1E1,-8.304217E-2,2.3671782E-2,-5.0570577E-2,2.5935987E-2,-3.4176808E-2,-8.75135E-2,-4.436118E-3,9.8394305E-2,-8.5532025E-2,5.5993316E-3],"split_indices":[2,19,0,4,0,23,0,0,0,4,0,13,13,0,0,0,0,0,0,0,0,0,0,0,0,0,0],"split_type":[0,0,0,0,0,0,0,0,0,0,0,0,0,0,0,0,0,0,0,0,0,0,0,0,0,0,0],"sum_hessian":[2.1146665E3,1.2789956E3,8.3567084E2,1.2565168E3,2.2478739E1,1.0257737E3,2.3074326E2,1.0173936E3,8.379996E0,1.3746358E2,9.327968E1,8.6659326E2,1.5080038E2,1.3635648E2,1.1071036E0,3.428575E1,5.8993923E1,8.5037177E2,1.622148E1,1.3560126E2,1.5199126E1,9.9148674E1,3.7207794E1,1.6794243E1,1.7491508E1,3.2336613E1,2.665731E1],"tree_param":{"num_deleted":"0","num_feature":"36","num_nodes":"27","size_leaf_vector":"1"}},{"base_weights":[-1.8804901E-3,-6.360747E-1,1.0026612E-1,-6.6375935E-1,9.564947E-2,-7.495804E-1,-2.989711E-1,-7.630113E-1,8.9787476E-2,-1.5966015E-1,-6.209768E-1,-8.234755E-1,-4.2235458E-1,-2.457476E-1,3.2098331E0,-7.6075643E-1,-4.5507886E-3,-8.4043585E-2,-1.959579E-3,-5.0882846E-2,3.219798E-2,-3.4890547E-2,5.2214365E-2,8.2433924E-2,4.600756E-1,-8.199646E-2,4.8351986E-3,8.018526E-2,-8.258302E-2],"categories":[],"categories_nodes":[],"categories_segments":[],"categories_sizes":[],"default_left":[0,0,0,0,0,0,0,0,0,0,0,0,0,0,0,0,0,0,0,0,0,0,0,0,0,0,0,0,0],"id":48,"left_children":[1,3,-1,5,-1,7,9,11,-1,13,15,17,19,21,23,25,27,-1,-1,-1,-1,-1,-1,-1,-1,-1,-1,-1,-1],"loss_changes":[1.2422317E3,5.3334595E1,0E0,3.6575195E1,0E0,2.1725769E1,1.0018082E1,1.909143E1,0E0,4.6844067E1,5.835169E0,1.0896912E1,9.452711E0,1.2519429E1,9.567638E0,2.6855164E0,9.623785E0,0E0,0E0,0E0,0E0,0E0,0E0,0E0,0E0,0E0,0E0,0E0,0E0],"parents":[2147483647,0,0,1,1,3,3,5,5,6,6,7,7,9,9,10,10,11,11,12,12,13,13,14,14,15,15,16,16],"right_children":[2,4,-1,6,-1,8,10,12,-1,14,16,18,20,22,24,26,28,-1,-1,-1,-1,-1,-1,-1,-1,-1,-1,-1,-1],"split_conditions":[3E0,1E0,1.0026612E-1,1E0,9.564947E-2,1E0,3.952303E0,2.7E1,8.9787476E-2,3.9483943E0,2.2E1,2.173913E-1,2.8037382E-2,3.6163485E0,3.6368423E0,3.938722E0,3.7E1,-8.4043585E-2,-1.959579E-3,-5.0882846E-2,3.219798E-2,-3.4890547E-2,5.2214365E-2,8.2433924E-2,4.600756E-1,-8.199646E-2,4.8351986E-3,8.018526E-2,-8.258302E-2],"split_indices":[6,19,0,4,0,23,16,0,0,16,20,13,13,15,15,15,0,0,0,0,0,0,0,0,0,0,0,0,0],"split_type":[0,0,0,0,0,0,0,0,0,0,0,0,0,0,0,0,0,0,0,0,0,0,0,0,0,0,0,0,0],"sum_hessian":[1.9478987E3,1.1942827E3,7.5361597E2,1.1744497E3,1.9833015E1,9.499154E2,2.245343E2,9.4276636E2,7.149063E0,1.5777231E2,6.6761986E1,7.9945184E2,1.4331448E2,1.5474576E2,3.0265446E0,5.4230614E1,1.2531375E1,7.828889E2,1.6562946E1,1.2868118E2,1.4633291E1,1.3690031E2,1.7845446E1,1.7013353E0,1.3252093E0,5.052027E1,3.7103448E0,6.334887E0,6.1964874E0],"tree_param":{"num_deleted":"0","num_feature":"36","num_nodes":"29","size_leaf_vector":"1"}},{"base_weights":[1.5378324E-2,-5.87235E-1,1.00214474E-1,-6.1326313E-1,9.514994E-2,-6.9551754E-1,-2.8098065E-1,-7.091295E-1,8.9282505E-2,-5.814901E-1,-1.6779542E-1,-7.610063E-1,-4.2849144E-1,-4.0532416E-1,-9.392318E-2,-8.6633176E-2,-9.3083955E-2,-7.815913E-2,1.4201686E-2,-3.217612E-2,-8.3331086E-2,-6.929248E-2,2.5409771E-2,-1.780853E-2,5.4017987E-2],"categories":[],"categories_nodes":[],"categories_segments":[],"categories_sizes":[],"default_left":[0,0,0,0,0,0,0,0,0,0,0,0,0,0,0,0,0,0,0,0,0,0,0,0,0],"id":49,"left_children":[1,3,-1,5,-1,7,9,11,-1,13,15,17,19,21,-1,23,-1,-1,-1,-1,-1,-1,-1,-1,-1],"loss_changes":[1.0733779E3,4.5468292E1,0E0,2.9942566E1,0E0,1.9728363E1,7.4015236E0,1.2430878E1,0E0,3.3953056E0,9.924836E0,1.3834259E1,5.737383E0,8.123423E0,0E0,8.530203E0,0E0,0E0,0E0,0E0,0E0,0E0,0E0,0E0,0E0],"parents":[2147483647,0,0,1,1,3,3,5,5,6,6,7,7,9,9,10,10,11,11,12,12,13,13,15,15],"right_children":[2,4,-1,6,-1,8,10,12,-1,14,16,18,20,22,-1,24,-1,-1,-1,-1,-1,-1,-1,-1,-1],"split_conditions":[1E0,1E0,1.00214474E-1,1E0,9.514994E-2,1E0,3E0,2.7E1,8.9282505E-2,3.916127E0,2E0,2.173913E-1,2E0,3.810081E0,-9.392318E-2,3.1E1,-9.3083955E-2,-7.815913E-2,1.4201686E-2,-3.217612E-2,-8.3331086E-2,-6.929248E-2,2.5409771E-2,-1.780853E-2,5.4017987E-2],"split_indices":[2,32,0,4,0,23,21,0,0,16,3,13,3,16,0,0,0,0,0,0,0,0,0,0,0],"split_type":[0,0,0,0,0,0,0,0,0,0,0,0,0,0,0,0,0,0,0,0,0,0,0,0,0],"sum_hessian":[1.8031034E3,1.1197081E3,6.8339526E2,1.1016744E3,1.8033684E1,8.821986E2,2.1947578E2,8.752513E2,6.9473224E0,5.8915695E1,1.6056009E2,7.3725574E2,1.3799557E2,4.090533E1,1.8010366E1,1.4613028E2,1.4429813E1,7.2095557E2,1.6300161E1,1.1062438E2,2.7371191E1,2.8447441E1,1.245789E1,1.2814919E2,1.79811E1],"tree_param":{"num_deleted":"0","num_feature":"36","num_nodes":"25","size_leaf_vector":"1"}},{"base_weights":[-3.144311E-3,-5.965548E-1,1.00165E-1,-6.2240684E-1,9.560085E-2,-7.17709E-1,-2.585343E-1,-7.8418785E-1,-3.793319E-1,-7.617297E-1,-7.937145E-2,-8.016875E-1,-2.0206761E-1,-4.3539575E-1,6.02984E-1,-4.2769766E-1,-8.668814E-1,-3.118309E-1,2.8903782E-1,6.281811E-2,-8.071017E-2,1.5887681E-2,-8.578066E-2,-3.0585712E-2,-9.354661E-2,1.887567E-1,-7.933742E-2,-9.2955925E-2,1.5037937E-1,-9.761963E-3,-8.848504E-2,-3.4026504E-3,-7.669394E-2,1.4514774E-1,-1.28452955E-2],"categories":[],"categories_nodes":[],"categories_segments":[],"categories_sizes":[],"default_left":[0,0,0,0,0,0,0,0,0,0,0,0,0,0,0,0,0,0,0,0,0,0,0,0,0,0,0,0,0,0,0,0,0,0,0],"id":50,"left_children":[1,3,-1,5,-1,7,9,11,13,15,17,19,21,23,25,27,29,31,33,-1,-1,-1,-1,-1,-1,-1,-1,-1,-1,-1,-1,-1,-1,-1,-1],"loss_changes":[9.9644696E2,4.2765503E1,0E0,3.5673553E1,0E0,1.81232E1,1.942939E1,6.8005066E0,7.7744217E0,1.6188698E0,1.3838662E1,5.641327E0,5.173898E0,8.110224E0,1.54596E1,1.6457848E1,4.956951E-1,1.2479393E1,3.0579706E1,0E0,0E0,0E0,0E0,0E0,0E0,0E0,0E0,0E0,0E0,0E0,0E0,0E0,0E0,0E0,0E0],"parents":[2147483647,0,0,1,1,3,3,5,5,6,6,7,7,8,8,9,9,10,10,11,11,12,12,13,13,14,14,15,15,16,16,17,17,18,18],"right_children":[2,4,-1,6,-1,8,10,12,14,16,18,20,22,24,26,28,30,32,34,-1,-1,-1,-1,-1,-1,-1,-1,-1,-1,-1,-1,-1,-1,-1,-1],"split_conditions":[3E0,1E0,1.00165E-1,1E0,9.560085E-2,2.7E1,3E0,4E0,7E0,3.251629E0,2.6E1,1.3E1,3.324863E0,5E0,8E0,3.188722E0,8E0,2.3E1,2.7E1,6.281811E-2,-8.071017E-2,1.5887681E-2,-8.578066E-2,-3.0585712E-2,-9.354661E-2,1.887567E-1,-7.933742E-2,-9.2955925E-2,1.5037937E-1,-9.761963E-3,-8.848504E-2,-3.4026504E-3,-7.669394E-2,1.4514774E-1,-1.28452955E-2],"split_indices":[6,23,0,4,0,0,21,12,21,15,0,0,15,21,21,15,20,0,0,0,0,0,0,0,0,0,0,0,0,0,0,0,0,0,0],"split_type":[0,0,0,0,0,0,0,0,0,0,0,0,0,0,0,0,0,0,0,0,0,0,0,0,0,0,0,0,0,0,0,0,0,0,0],"sum_hessian":[1.6691722E3,1.0496671E3,6.195052E2,1.0330645E3,1.6602625E1,8.178803E2,2.1518416E2,6.8248016E2,1.3540012E2,5.564591E1,1.5953825E2,6.6219617E2,2.0284012E1,1.2861635E2,6.7837753E0,1.4536306E1,4.11096E1,9.791149E1,6.1626766E1,2.0640924E0,6.601321E2,1.3571461E1,6.7125506E0,1.0343427E2,2.5182072E1,3.3500814E0,3.433694E0,1.19500475E1,2.586259E0,1.0851812E0,4.002442E1,6.146636E1,3.6445137E1,1.5630195E1,4.599657E1],"tree_param":{"num_deleted":"0","num_feature":"36","num_nodes":"35","size_leaf_vector":"1"}},{"base_weights":[1.2976879E-2,-5.482698E-1,1.0011699E-1,-6.057087E-1,1.648184E-1,-6.865687E-1,-2.7944714E-1,-8.179059E-1,3.0664545E-1,-7.0058596E-1,8.7034635E-2,-3.157139E-1,1.4774042E0,-2.2299482E-2,-8.862508E-2,2.433249E0,1.2751086E-1,-7.4867564E-1,-3.1209368E-1,-2.3262621E-1,-9.5009826E-2,-5.089757E-2,2.4872282E-1,3.3813754E-1,-4.564304E-2,-9.00744E-2,9.279891E-2,3.1323328E-3,-7.581234E-2,-4.367768E-2,5.352012E-2,-7.744043E-2,-1.2478984E-2,8.030519E-2,-4.928071E-2],"categories":[],"categories_nodes":[],"categories_segments":[],"categories_sizes":[],"default_left":[0,0,0,0,0,0,0,0,0,0,0,0,0,0,0,0,0,0,0,0,0,0,0,0,0,0,0,0,0,0,0,0,0,0,0],"id":51,"left_children":[1,3,-1,5,7,9,11,13,15,17,-1,19,21,-1,-1,23,25,27,29,31,-1,-1,-1,-1,-1,33,-1,-1,-1,-1,-1,-1,-1,-1,-1],"loss_changes":[8.601504E2,4.0613556E1,0E0,2.3963226E1,1.0637259E1,1.6608032E1,1.216066E1,1.9559002E-1,2.477498E1,1.3350006E1,0E0,9.300983E0,9.0653305E0,0E0,0E0,1.5408289E1,1.0845497E1,4.786377E0,8.875723E0,9.312698E0,0E0,0E0,0E0,0E0,0E0,1.819852E1,0E0,0E0,0E0,0E0,0E0,0E0,0E0,0E0,0E0],"parents":[2147483647,0,0,1,1,3,3,4,4,5,5,6,6,7,7,8,8,9,9,11,11,12,12,15,15,16,16,17,17,18,18,19,19,25,25],"right_children":[2,4,-1,6,8,10,12,14,16,18,-1,20,22,-1,-1,24,26,28,30,32,-1,-1,-1,-1,-1,34,-1,-1,-1,-1,-1,-1,-1,-1,-1],"split_conditions":[1E0,3.1E1,1.0011699E-1,1E0,3.5368867E0,1E0,5E0,1.9E1,3.5841837E0,1.6E1,8.7034635E-2,4E0,3.6901164E0,-2.2299482E-2,-8.862508E-2,1E0,1E0,3.1068907E0,1E0,3.625E0,-9.5009826E-2,-5.089757E-2,2.4872282E-1,3.3813754E-1,-4.564304E-2,3.9690015E0,9.279891E-2,3.1323328E-3,-7.581234E-2,-4.367768E-2,5.352012E-2,-7.744043E-2,-1.2478984E-2,8.030519E-2,-4.928071E-2],"split_indices":[2,0,0,4,15,23,12,20,15,20,0,21,15,0,0,4,19,16,12,16,0,0,0,0,0,16,0,0,0,0,0,0,0,0,0],"split_type":[0,0,0,0,0,0,0,0,0,0,0,0,0,0,0,0,0,0,0,0,0,0,0,0,0,0,0,0,0,0,0,0,0,0,0],"sum_hessian":[1.5488925E3,9.881279E2,5.607645E2,9.1460736E2,7.3520615E1,7.3206866E2,1.8253868E2,8.671131E0,6.484948E1,7.260816E2,5.9870596E0,1.7965045E2,2.8882368E0,1.3327687E0,7.3383627E0,4.0605965E0,6.0788883E1,6.4527844E2,8.080316E1,1.6005424E2,1.9596207E1,1.1405963E0,1.7476405E0,2.929311E0,1.1312854E0,4.8494602E1,1.2294284E1,7.6947374E0,6.375837E2,7.086027E1,9.942891E0,2.5543E1,1.3451125E2,1.4762441E1,3.373216E1],"tree_param":{"num_deleted":"0","num_feature":"36","num_nodes":"35","size_leaf_vector":"1"}},{"base_weights":[1.1147995E-2,-5.2555627E-1,1.00070514E-1,-6.506651E-1,-1.572882E-1,-6.653663E-1,8.7676235E-2,-2.3110056E-1,9.3791954E-2,-6.8336254E-1,1.11810915E-1,-1.2368694E-1,-8.544861E-1,-8.7909174E-1,-6.1765975E-1,1.2565935E0,-4.5248818E-1,-2.3858623E-1,9.6551824E-1,-9.719432E-2,1.2864509E-1,-6.742992E-2,-9.1231264E-2,-6.3682325E-2,-5.2882372E-3,-5.7031907E-2,1.9182663E-1,-8.770115E-2,3.6523353E-2,-6.931048E-2,-1.4641008E-2,1.511601E-1,-8.160217E-2,1.4723338E-1,-7.119539E-2],"categories":[],"categories_nodes":[],"categories_segments":[],"categories_sizes":[],"default_left":[0,0,0,0,0,0,0,0,0,0,0,0,0,0,0,0,0,0,0,0,0,0,0,0,0,0,0,0,0,0,0,0,0,0,0],"id":52,"left_children":[1,3,-1,5,7,9,-1,11,-1,13,15,17,19,21,23,25,27,29,31,-1,33,-1,-1,-1,-1,-1,-1,-1,-1,-1,-1,-1,-1,-1,-1],"loss_changes":[7.692596E2,4.316571E1,0E0,1.6316559E1,1.957422E1,9.790436E0,0E0,1.4969541E1,0E0,8.188477E0,1.1278075E1,2.4411112E1,3.926693E0,5.296631E-1,5.5043945E0,8.030798E0,4.4303617E0,7.2546015E0,1.9363274E1,0E0,6.014193E0,0E0,0E0,0E0,0E0,0E0,0E0,0E0,0E0,0E0,0E0,0E0,0E0,0E0,0E0],"parents":[2147483647,0,0,1,1,3,3,4,4,5,5,7,7,9,9,10,10,11,11,12,12,13,13,14,14,15,15,16,16,17,17,18,18,20,20],"right_children":[2,4,-1,6,8,10,-1,12,-1,14,16,18,20,22,24,26,28,30,32,-1,34,-1,-1,-1,-1,-1,-1,-1,-1,-1,-1,-1,-1,-1,-1],"split_conditions":[1E0,1.9E1,1.00070514E-1,1E0,1E0,2.173913E-1,8.7676235E-2,2E0,9.3791954E-2,1.1E1,2.3684211E-1,4E0,2E1,2.5849626E0,3.7381494E0,3.5E0,3.6507937E-1,3E0,7.058824E-2,-9.719432E-2,3.6536608E0,-6.742992E-2,-9.1231264E-2,-6.3682325E-2,-5.2882372E-3,-5.7031907E-2,1.9182663E-1,-8.770115E-2,3.6523353E-2,-6.931048E-2,-1.4641008E-2,1.511601E-1,-8.160217E-2,1.4723338E-1,-7.119539E-2],"split_indices":[2,1,0,23,32,13,0,3,0,1,13,21,20,15,15,16,13,21,13,0,15,0,0,0,0,0,0,0,0,0,0,0,0,0,0],"split_type":[0,0,0,0,0,0,0,0,0,0,0,0,0,0,0,0,0,0,0,0,0,0,0,0,0,0,0,0,0,0,0,0,0,0,0],"sum_hessian":[1.446438E3,9.3810736E2,5.0833063E2,6.996529E2,2.3845448E2,6.9354205E2,6.1108246E0,2.2413754E2,1.431693E1,6.779639E2,1.557815E1,1.9221585E2,3.19217E1,1.672739E2,5.1069E2,4.7384753E0,1.0839674E1,1.7458046E2,1.7635386E1,2.8525114E1,3.3965867E0,2.6319986E1,1.409539E2,4.9380707E2,1.688295E1,1.2965894E0,3.4418857E0,7.0876093E0,3.752065E0,2.8336155E1,1.4624431E2,1.3613925E1,4.02146E0,1.017921E0,2.3786657E0],"tree_param":{"num_deleted":"0","num_feature":"36","num_nodes":"35","size_leaf_vector":"1"}},{"base_weights":[2.6863487E-2,-4.771594E-1,1.00023985E-1,-5.91541E-1,-1.0374661E-1,-6.1736995E-1,9.187415E-2,-2.366457E-2,-4.792398E-1,-6.292629E-1,8.4368415E-2,-9.815701E-2,8.6170566E-1,-6.120621E-1,7.537022E-2,-6.913036E-1,-3.5056075E-1,-3.4829116E-1,5.8918957E-2,2.553533E-1,2.1283948E0,-3.5155293E-1,-9.386378E-2,-7.133462E-2,1.4211987E-2,-2.6160477E-2,-9.4534956E-2,-5.0256647E-2,2.6295234E-2,1.3965993E-1,-6.837625E-3,-7.751506E-2,8.647129E-2,3.3550692E-1,-4.127793E-2,-6.824105E-2,8.844455E-2],"categories":[],"categories_nodes":[],"categories_segments":[],"categories_sizes":[],"default_left":[0,0,0,0,0,0,0,0,0,0,0,0,0,0,0,0,0,0,0,0,0,0,0,0,0,0,0,0,0,0,0,0,0,0,0,0,0],"id":53,"left_children":[1,3,-1,5,7,9,-1,11,13,15,-1,17,19,21,-1,23,25,27,29,31,33,35,-1,-1,-1,-1,-1,-1,-1,-1,-1,-1,-1,-1,-1,-1,-1],"loss_changes":[6.614731E2,3.7881195E1,0E0,2.7086624E1,6.288926E0,1.2155563E1,0E0,1.1543365E1,6.4841013E0,1.1241608E1,0E0,6.3523026E0,9.891228E0,2.5415726E0,0E0,1.0062225E1,6.2583246E0,6.007786E0,1.7097425E1,7.1532516E0,1.4669605E1,8.935443E0,0E0,0E0,0E0,0E0,0E0,0E0,0E0,0E0,0E0,0E0,0E0,0E0,0E0,0E0,0E0],"parents":[2147483647,0,0,1,1,3,3,4,4,5,5,7,7,8,8,9,9,11,11,12,12,13,13,15,15,16,16,17,17,18,18,19,19,20,20,21,21],"right_children":[2,4,-1,6,8,10,-1,12,14,16,-1,18,20,22,-1,24,26,28,30,32,34,36,-1,-1,-1,-1,-1,-1,-1,-1,-1,-1,-1,-1,-1,-1,-1],"split_conditions":[1E0,1.5E1,1.00023985E-1,1E0,3.826875E0,1E0,9.187415E-2,3.787144E0,1E0,1E0,8.4368415E-2,3.5464394E0,4.1261067E0,4.1812778E0,7.537022E-2,3.75E0,4.2857144E-2,3.8868423E0,3.8349626E0,1.7E1,4.1523914E0,2.631579E-2,-9.386378E-2,-7.133462E-2,1.4211987E-2,-2.6160477E-2,-9.4534956E-2,-5.0256647E-2,2.6295234E-2,1.3965993E-1,-6.837625E-3,-7.751506E-2,8.647129E-2,3.3550692E-1,-4.127793E-2,-6.824105E-2,8.844455E-2],"split_indices":[2,20,0,19,15,23,0,15,19,4,0,15,16,16,0,15,13,16,16,20,16,13,0,0,0,0,0,0,0,0,0,0,0,0,0,0,0],"split_type":[0,0,0,0,0,0,0,0,0,0,0,0,0,0,0,0,0,0,0,0,0,0,0,0,0,0,0,0,0,0,0,0,0,0,0,0,0],"sum_hessian":[1.3463103E3,8.87345E2,4.5896533E2,6.788268E2,2.0851823E2,6.679939E2,1.083286E1,1.7274059E2,3.5777645E1,6.6316504E2,4.82887E0,1.6015477E2,1.2585815E1,3.2752827E1,3.0248194E0,5.4120856E2,1.2195649E2,6.1308033E1,9.884674E1,9.324063E0,3.2617521E0,1.9374378E1,1.3378448E1,5.2740375E2,1.3804803E1,1.07342316E2,1.4614178E1,4.9094563E1,1.2213467E1,7.7225957E0,9.1124146E1,3.363644E0,5.9604197E0,1.9838337E0,1.2779185E0,1.5636592E1,3.7377865E0],"tree_param":{"num_deleted":"0","num_feature":"36","num_nodes":"37","size_leaf_vector":"1"}},{"base_weights":[5.025181E-3,-4.8484194E-1,9.9977724E-2,-6.115012E-1,-6.282834E-2,-6.9012433E-1,-2.8434622E-1,-4.524951E-1,6.1247624E-2,-7.192063E-1,4.361271E-2,-4.2419782E-1,5.664295E-1,-2.161503E-1,-8.7588954E-1,-7.2736405E-2,6.9955623E-1,-7.439952E-1,1.3968284E-1,3.8888568E-1,-8.102494E-2,-1.9975066E-1,-6.736905E-1,1.5814974E0,2.1816107E-2,-4.3723318E-1,2.2660415E-1,-2.334596E-2,-9.1447175E-2,7.692778E-2,-7.4322206E-1,-7.329932E-2,9.8173547E-1,-3.4769688E-2,-7.763214E-2,5.09825E-1,-6.3512295E-2,-6.6696764E-3,3.4818688E-1,-3.1379893E-2,1.8155478E-1,-7.206028E-2,5.862322E-2,-6.372913E-2,2.7176178E-1,1.5090469E-1,-2.3122562E-2,-5.4245353E-2,7.729337E-2,1.6196767E-3,2.3328479E-1,-9.1108315E-2,-3.9609052E-2,3.0816066E-1,3.2286644E-2],"categories":[],"categories_nodes":[],"categories_segments":[],"categories_sizes":[],"default_left":[0,0,0,0,0,0,0,0,0,0,0,0,0,0,0,0,0,0,0,0,0,0,0,0,0,0,0,0,0,0,0,0,0,0,0,0,0,0,0,0,0,0,0,0,0,0,0,0,0,0,0,0,0,0,0],"id":54,"left_children":[1,3,-1,5,7,9,11,13,15,17,19,21,23,25,27,29,31,33,35,37,-1,39,41,43,45,47,-1,-1,-1,49,51,-1,53,-1,-1,-1,-1,-1,-1,-1,-1,-1,-1,-1,-1,-1,-1,-1,-1,-1,-1,-1,-1,-1,-1],"loss_changes":[6.13724E2,4.506888E1,0E0,1.6496353E1,9.500229E0,1.1181122E1,1.540375E1,4.557578E0,1.2835337E1,1.0805939E1,6.4659743E0,6.026497E0,1.0148411E1,1.8425734E1,1.9960403E-1,1.2546155E1,1.124113E1,5.9908752E0,6.0645714E1,2.2118303E1,0E0,1.4208529E1,3.4772034E0,1.7910322E1,5.241998E0,4.2406898E0,0E0,0E0,0E0,1.4025966E1,9.679861E-1,0E0,2.9681458E1,0E0,0E0,0E0,0E0,0E0,0E0,0E0,0E0,0E0,0E0,0E0,0E0,0E0,0E0,0E0,0E0,0E0,0E0,0E0,0E0,0E0,0E0],"parents":[2147483647,0,0,1,1,3,3,4,4,5,5,6,6,7,7,8,8,9,9,10,10,11,11,12,12,13,13,14,14,15,15,16,16,17,17,18,18,19,19,21,21,22,22,23,23,24,24,25,25,29,29,30,30,32,32],"right_children":[2,4,-1,6,8,10,12,14,16,18,20,22,24,26,28,30,32,34,36,38,-1,40,42,44,46,48,-1,-1,-1,50,52,-1,54,-1,-1,-1,-1,-1,-1,-1,-1,-1,-1,-1,-1,-1,-1,-1,-1,-1,-1,-1,-1,-1,-1],"split_conditions":[1E0,1E0,9.9977724E-2,2.7E1,3E0,4E0,1E0,3.5724695E0,3.1E1,3.75E0,3.324863E0,3.6368423E0,3.9690015E0,3.5465937E0,1.2E1,2.7E1,3.640224E0,3.3278196E0,3.884155E0,3.8282375E0,-8.102494E-2,4.0212684E0,1E0,3.8936608E0,3.6644979E0,1E0,2.2660415E-1,-2.334596E-2,-9.1447175E-2,5E0,3.7219281E0,-7.329932E-2,3.9690015E0,-3.4769688E-2,-7.763214E-2,5.09825E-1,-6.3512295E-2,-6.6696764E-3,3.4818688E-1,-3.1379893E-2,1.8155478E-1,-7.206028E-2,5.862322E-2,-6.372913E-2,2.7176178E-1,1.5090469E-1,-2.3122562E-2,-5.4245353E-2,7.729337E-2,1.6196767E-3,2.3328479E-1,-9.1108315E-2,-3.9609052E-2,3.0816066E-1,3.2286644E-2],"split_indices":[2,4,0,0,21,12,12,15,0,15,15,15,16,15,20,0,15,16,16,16,0,16,32,16,15,12,0,0,0,12,15,0,16,0,0,0,0,0,0,0,0,0,0,0,0,0,0,0,0,0,0,0,0,0,0],"split_type":[0,0,0,0,0,0,0,0,0,0,0,0,0,0,0,0,0,0,0,0,0,0,0,0,0,0,0,0,0,0,0,0,0,0,0,0,0,0,0,0,0,0,0,0,0,0,0,0,0,0,0,0,0,0,0],"sum_hessian":[1.2574525E3,8.428851E2,4.145674E2,6.479626E2,1.9492249E2,5.2151953E2,1.26443054E2,4.6437206E1,1.4848528E2,5.0165604E2,1.9863493E1,1.090231E2,1.7419956E1,3.0770945E1,1.5666262E1,1.2345709E2,2.5028187E1,4.877136E2,1.3942426E1,1.4531857E1,5.3316355E0,5.8340122E1,5.0682976E1,5.417938E0,1.2002018E1,2.9010868E1,1.7600768E0,1.2870271E0,1.4379234E1,1.0165187E2,2.1805222E1,3.8557827E0,2.1172403E1,3.7669167E1,4.5004443E2,1.1300901E0,1.2812336E1,1.3519005E1,1.0128522E0,5.6014484E1,2.3256385E0,4.927627E1,1.4067059E0,1.9834393E0,3.434499E0,1.0234066E0,1.0978611E1,2.7197851E1,1.8130175E0,9.996784E1,1.6840277E0,1.3602774E1,8.202447E0,4.1783943E0,1.6994009E1],"tree_param":{"num_deleted":"0","num_feature":"36","num_nodes":"55","size_leaf_vector":"1"}},{"base_weights":[-7.470818E-3,-4.801879E-1,9.993171E-2,-5.397879E-1,1.663559E-1,-6.3029176E-1,-2.1688811E-1,3.5344997E-1,-4.5954335E-1,-6.4655334E-1,8.602469E-2,-1.2823416E-1,-9.338832E-2,1.7457597E-1,9.8391783E-1,7.730391E-2,-6.7959493E-1,-6.7197376E-1,2.919835E-1,-1.6792944E-1,1.3292409E0,3.996586E-1,-2.3826408E-1,3.0047444E-1,4.0669006E-1,-9.069892E-2,6.308522E-2,-7.151753E-2,-4.273758E-2,1.2560277E-1,-2.4184411E-2,8.155623E-3,-4.1709553E-2,2.582049E-1,-5.4466475E-2,2.1082109E-2,9.0929106E-2,-4.6127744E-2,4.770997E-2,-1.8004393E-2,8.363272E-2],"categories":[],"categories_nodes":[],"categories_segments":[],"categories_sizes":[],"default_left":[0,0,0,0,0,0,0,0,0,0,0,0,0,0,0,0,0,0,0,0,0,0,0,0,0,0,0,0,0,0,0,0,0,0,0,0,0,0,0,0,0],"id":55,"left_children":[1,3,-1,5,7,9,11,13,15,17,-1,19,-1,21,23,-1,25,27,29,31,33,35,37,-1,39,-1,-1,-1,-1,-1,-1,-1,-1,-1,-1,-1,-1,-1,-1,-1,-1],"loss_changes":[5.603465E2,3.0962662E1,0E0,2.1307632E1,8.170582E0,1.4435837E1,1.0188542E1,5.8293686E0,4.911834E0,1.3724152E1,0E0,8.640216E0,0E0,4.060118E0,1.2245149E1,0E0,4.819917E0,5.5312653E0,8.3577385E0,8.893239E0,1.0725272E1,2.501709E0,2.7218397E0,0E0,2.7058413E0,0E0,0E0,0E0,0E0,0E0,0E0,0E0,0E0,0E0,0E0,0E0,0E0,0E0,0E0,0E0,0E0],"parents":[2147483647,0,0,1,1,3,3,4,4,5,5,6,6,7,7,8,8,9,9,11,11,13,13,14,14,16,16,17,17,18,18,19,19,20,20,21,21,22,22,24,24],"right_children":[2,4,-1,6,8,10,12,14,16,18,-1,20,-1,22,24,-1,26,28,30,32,34,36,38,-1,40,-1,-1,-1,-1,-1,-1,-1,-1,-1,-1,-1,-1,-1,-1,-1,-1],"split_conditions":[1E0,3.1E1,9.993171E-2,1E0,2E0,1E0,4E0,1.923077E-2,2.5E1,2.173913E-1,8.602469E-2,5E0,-9.338832E-2,2.7E1,3.0075189E-2,7.730391E-2,1E0,2.7E1,2.3684211E-1,1.6E1,2.236842E-1,3.3E1,3.9E1,3.0047444E-1,1E0,-9.069892E-2,6.308522E-2,-7.151753E-2,-4.273758E-2,1.2560277E-1,-2.4184411E-2,8.155623E-3,-4.1709553E-2,2.582049E-1,-5.4466475E-2,2.1082109E-2,9.0929106E-2,-4.6127744E-2,4.770997E-2,-1.8004393E-2,8.363272E-2],"split_indices":[2,0,0,4,4,23,21,13,1,13,0,12,0,1,13,0,19,0,13,1,13,0,0,0,19,0,0,0,0,0,0,0,0,0,0,0,0,0,0,0,0],"split_type":[0,0,0,0,0,0,0,0,0,0,0,0,0,0,0,0,0,0,0,0,0,0,0,0,0,0,0,0,0,0,0,0,0,0,0,0,0,0,0,0,0],"sum_hessian":[1.1753737E3,8.001856E2,3.7518805E2,7.327995E2,6.738613E1,5.7162866E2,1.611708E2,5.2213688E1,1.5172445E1,5.660197E2,5.6089654E0,1.4448463E2,1.6686174E1,4.1668545E1,1.0545145E1,1.9177115E0,1.3254734E1,5.513698E2,1.4649929E1,1.4151515E2,2.9694772E0,2.698701E1,1.4681535E1,1.4085287E0,9.136617E0,1.1557165E1,1.6975693E0,4.6696875E2,8.440103E1,4.738948E0,9.910981E0,7.1048355E1,7.0466805E1,1.5531886E0,1.4162885E0,2.0722307E1,6.264702E0,1.1463115E1,3.2184203E0,4.1077743E0,5.028842E0],"tree_param":{"num_deleted":"0","num_feature":"36","num_nodes":"41","size_leaf_vector":"1"}},{"base_weights":[4.1013494E-2,-3.8645163E-1,9.98856E-2,-5.0783694E-1,-1.6019372E-2,-5.7760626E-1,-9.8816E-2,-5.666279E-1,1.4138542E-1,-6.0762405E-1,3.3313912E-1,-3.03596E-1,5.2190167E-1,-6.444384E-1,6.6349655E-1,2.22436E0,8.274412E-2,-6.239144E-1,8.360099E-2,-1.5992677E-1,1.2560257E0,1.1361058E0,-4.4824556E-1,2.9079177E0,-2.2571014E-1,-4.121097E-1,-9.016385E-2,-5.07013E-2,1.5041277E-1,3.0641738E-1,7.7278554E-2,3.1535956E-1,-2.81228E-1,-6.4689584E-2,8.20345E-3,1.20823E-1,-8.8446796E-2,2.3451407E-1,-6.2244993E-2,2.761247E-1,8.853613E-3,-4.888248E-2,6.2253274E-2,1.1013154E-2,6.4404035E-1,2.2141719E-1,-6.615876E-2,-5.6210082E-2,1.2534977E-1,2.9399649E-3,1.1557788E-1,-5.422158E-2,4.032485E-2],"categories":[],"categories_nodes":[],"categories_segments":[],"categories_sizes":[],"default_left":[0,0,0,0,0,0,0,0,0,0,0,0,0,0,0,0,0,0,0,0,0,0,0,0,0,0,0,0,0,0,0,0,0,0,0,0,0,0,0,0,0,0,0,0,0,0,0,0,0,0,0,0,0],"id":56,"left_children":[1,3,-1,5,7,9,11,13,15,17,19,21,23,25,27,29,31,33,-1,35,37,39,41,43,45,47,-1,-1,-1,-1,-1,49,51,-1,-1,-1,-1,-1,-1,-1,-1,-1,-1,-1,-1,-1,-1,-1,-1,-1,-1,-1,-1],"loss_changes":[4.5271228E2,3.4370583E1,0E0,1.6375458E1,1.6524122E1,1.3645218E1,1.0977648E1,4.4841747E0,1.7937065E1,1.1724762E1,7.6342216E0,1.3969419E1,3.89771E1,2.0405693E0,3.7283115E0,2.5369644E0,1.2393116E1,7.704727E0,0E0,1.2502275E1,1.3328502E1,1.0283355E1,2.887494E0,5.0655926E1,1.9847527E1,6.4633293E0,0E0,0E0,0E0,0E0,0E0,2.1387661E1,1.0435812E1,0E0,0E0,0E0,0E0,0E0,0E0,0E0,0E0,0E0,0E0,0E0,0E0,0E0,0E0,0E0,0E0,0E0,0E0,0E0,0E0],"parents":[2147483647,0,0,1,1,3,3,4,4,5,5,6,6,7,7,8,8,9,9,10,10,11,11,12,12,13,13,14,14,15,15,16,16,17,17,19,19,20,20,21,21,22,22,23,23,24,24,25,25,31,31,32,32],"right_children":[2,4,-1,6,8,10,12,14,16,18,20,22,24,26,28,30,32,34,-1,36,38,40,42,44,46,48,-1,-1,-1,-1,-1,50,52,-1,-1,-1,-1,-1,-1,-1,-1,-1,-1,-1,-1,-1,-1,-1,-1,-1,-1,-1,-1],"split_conditions":[1E0,1E0,9.98856E-2,3.6536608E0,3.7219281E0,2.173913E-1,1.5625E-2,2E0,3.7256508E0,1E0,3.7345216E0,3E0,3.9690015E0,3.1971598E0,3.6368423E0,3.1018813E0,3.9690015E0,3.1E1,8.360099E-2,3E0,3.324863E0,2.4E1,1E0,3.75E0,3.7004397E0,3.188722E0,-9.016385E-2,-5.07013E-2,1.5041277E-1,3.0641738E-1,7.7278554E-2,3.6163485E0,3.3E1,-6.4689584E-2,8.20345E-3,1.20823E-1,-8.8446796E-2,2.3451407E-1,-6.2244993E-2,2.761247E-1,8.853613E-3,-4.888248E-2,6.2253274E-2,1.1013154E-2,6.4404035E-1,2.2141719E-1,-6.615876E-2,-5.6210082E-2,1.2534977E-1,2.9399649E-3,1.1557788E-1,-5.422158E-2,4.032485E-2],"split_indices":[2,4,0,15,16,13,13,4,16,23,16,21,16,15,16,15,16,0,0,21,15,0,23,15,15,15,0,0,0,0,0,15,0,0,0,0,0,0,0,0,0,0,0,0,0,0,0,0,0,0,0,0,0],"split_type":[0,0,0,0,0,0,0,0,0,0,0,0,0,0,0,0,0,0,0,0,0,0,0,0,0,0,0,0,0,0,0,0,0,0,0,0,0,0,0,0,0,0,0,0,0,0,0,0,0,0,0,0,0],"sum_hessian":[1.1037323E3,7.635655E2,3.4016684E2,5.748308E2,1.887347E2,4.9071436E2,8.411645E1,4.1381313E1,1.4735338E2,4.7537888E2,1.5335457E1,6.363396E1,2.0482485E1,3.936729E1,2.0140233E0,3.0235462E0,1.4432983E2,4.7063593E2,4.7429724E0,1.0534143E1,4.8013134E0,5.1839304E0,5.845003E1,4.197257E0,1.6285229E1,2.2050962E1,1.7316328E1,1.0077211E0,1.0063024E0,1.2116251E0,1.8119212E0,8.813568E1,5.6194157E1,4.558789E2,1.4757022E1,3.4160364E0,7.1181073E0,2.8819623E0,1.9193509E0,1.3906671E0,3.7932632E0,5.6839474E1,1.6105561E0,2.9176261E0,1.2796309E0,1.84997E0,1.4435259E1,2.0837069E1,1.2138929E0,6.6532425E1,2.1603252E1,4.083268E1,1.5361477E1],"tree_param":{"num_deleted":"0","num_feature":"36","num_nodes":"53","size_leaf_vector":"1"}},{"base_weights":[1.637624E-2,-3.9919463E-1,9.983869E-2,-5.274344E-1,-2.557771E-2,-5.475493E-1,8.837613E-2,-5.0142664E-1,1.2338975E-1,-9.6834064E-1,-5.09366E-1,-1.3261169E-1,-8.9730185E-1,9.215303E-3,6.44763E-1,-9.791419E-2,-2.7820885E-2,1.9955558E-1,-5.3417826E-1,-5.6895643E-1,2.2141001E0,-1.2910287E-2,-9.294023E-2,3.4514064E-1,-2.0367843E-1,9.303675E-1,-6.100498E-1,1.634417E-1,-3.3782054E-2,-5.9165966E-2,-1.999015E-2,-4.719817E-3,-9.270265E-2,-6.2713824E-2,4.5606494E-1,1.3452075E-2,3.2500625E-1,-1.1076603E-2,-8.795092E-2,-1.317314E-2,1.24661185E-1,-7.21004E-2,-2.1609351E-2],"categories":[],"categories_nodes":[],"categories_segments":[],"categories_sizes":[],